225 53
bueno 1.017562 1.018298 0.972948 1.072167 1.073983 0.899116 1.101668 0.984204 1.112557 0.823816 0.642901 1.003779 0.908851 1.114827 0.504444 1.012168 0.958083 1.064774 1.004409 1.101281 0.923654 0.981607 0.933354 0.928610 0.910165 0.879012 1.099927 0.932652 0.735100 0.983478 0.960558 0.885964 1.027481 0.855516 1.108893 0.980916 0.987363 1.052238 0.999241 1.081304 1.035744 1.121711 0.957030 1.117763 0.936861 1.086428 0.845155 1.091101 1.116619 0.859512 0.718315 0.976003 1.120588
infancia 0.961414 0.930847 1.001504 1.071864 1.088609 0.863191 1.070490 0.993270 1.112265 0.846890 0.992158 0.963588 0.818196 1.096055 0.445896 0.954550 0.926687 1.064096 0.936960 1.006763 0.681690 0.954222 0.917261 0.910734 0.882891 0.830715 1.062557 0.952857 0.961875 0.939066 0.916357 0.875619 0.975587 0.812115 1.039640 0.985057 0.932341 1.016665 1.032389 1.035868 0.992711 1.081746 0.954538 1.093763 0.918918 0.947542 0.874009 1.098450 1.116328 0.846888 0.649307 0.964192 1.124297
mi 0.954546 0.846094 0.920511 0.986174 1.004349 0.793282 1.017060 0.908073 1.029942 0.729380 0.888794 0.845346 0.739275 1.007284 0.306474 0.867585 0.871181 0.971582 0.887832 0.998781 0.740451 0.850335 0.824474 0.823576 0.737890 0.718685 1.014837 0.875262 0.925923 0.881950 0.857045 0.808708 0.950968 0.769895 1.011902 0.875299 0.784141 1.000713 0.933485 0.993007 0.935218 1.017814 0.855603 1.029023 0.838472 0.905388 0.740015 1.026365 0.986958 0.733320 0.626383 0.871790 1.075264
fue 1.159366 1.171930 1.252027 1.328534 1.342081 1.132968 1.295763 1.267177 1.361339 1.154701 1.168677 1.217028 1.092180 1.357671 0.863633 1.249340 1.244269 1.338249 1.303258 1.347079 1.153936 1.252764 1.212476 1.209992 1.185136 1.138609 1.328286 1.246032 1.237767 1.202585 1.192652 1.193889 1.256439 1.154389 1.373248 1.251832 1.217481 1.351672 1.304807 1.347094 1.315394 1.364514 1.246731 1.353818 1.246474 1.314719 1.139468 1.356423 1.364660 1.175256 0.868686 1.252618 1.391990
eh 0.975980 0.809990 0.982098 1.026053 1.043533 0.849793 1.062144 0.886925 1.068188 0.750181 0.927093 0.959344 0.873772 1.068562 0.408198 0.885985 0.880300 1.025404 0.920345 1.059154 0.793908 0.917532 0.867105 0.859526 0.879905 0.801171 1.015790 0.918680 0.985272 0.751811 0.749209 0.770873 0.995909 0.804219 1.052009 0.937700 0.944452 1.040708 0.981971 1.020536 0.969561 1.035197 0.907335 1.044387 0.852392 1.020434 0.855756 1.035480 1.055332 0.794339 0.601604 0.932376 1.090037
muy 0.781830 0.875534 0.838451 0.979426 0.990009 0.753960 0.960792 0.887229 1.030791 0.720047 0.916760 0.924075 0.622541 0.999452 0.301876 0.864680 0.880593 1.000098 0.933214 0.922843 0.785913 0.881599 0.825194 0.829178 0.824762 0.773143 1.011076 0.867549 0.923904 0.895851 0.865405 0.796885 0.922138 0.749809 0.995932 0.853349 0.849664 0.996517 0.922171 1.000218 0.951370 1.026993 0.861158 1.018080 0.805029 1.000954 0.827678 1.016388 1.018832 0.733960 0.719693 0.818918 1.054737
yo 0.893299 0.902639 0.841314 0.901153 0.942937 0.752004 0.986618 0.796280 0.978447 0.643259 0.856529 0.909251 0.748629 0.965728 0.198172 0.781676 0.822899 0.924749 0.825396 0.957792 0.693347 0.791017 0.696401 0.682397 0.780603 0.673728 0.892879 0.794371 0.907791 0.801219 0.752454 0.672070 0.864685 0.692166 0.959899 0.768071 0.837977 0.952667 0.870075 0.935391 0.874093 0.937448 0.740831 0.917269 0.724683 0.937595 0.794113 0.926301 0.964059 0.613069 0.638853 0.759541 0.966565
creo 0.829392 0.978617 0.973398 1.059454 1.060600 0.863704 1.071802 0.964997 1.100311 0.822729 0.901747 1.001745 0.853157 1.095894 0.435575 0.970912 0.924867 1.054358 0.956620 1.073491 0.832561 0.964949 0.885998 0.886379 0.890917 0.825379 1.053935 0.952062 0.997375 0.931751 0.904413 0.862338 0.817507 0.746472 1.075029 0.933306 0.960622 1.070201 1.006321 1.072414 1.003490 1.082020 0.931967 1.050164 0.895621 1.037097 0.869706 1.077914 1.104417 0.821766 0.637615 0.921728 1.088023
que 0.922264 0.913565 0.857175 0.923701 0.947706 0.757509 0.991062 0.807805 0.979219 0.638261 0.866998 0.831524 0.749415 0.930656 0.171777 0.821976 0.770707 0.944179 0.834467 0.920210 0.688801 0.803489 0.742390 0.712753 0.736817 0.646216 0.920936 0.754219 0.813341 0.803653 0.772066 0.674865 0.858067 0.646444 0.953361 0.830803 0.771338 0.861828 0.848596 0.897325 0.874237 0.957533 0.796245 0.929036 0.723177 0.897091 0.767446 0.952574 0.953656 0.646905 0.695411 0.793662 1.031382
común 1.131579 1.148727 1.244307 1.328534 1.342081 1.122136 1.285634 1.265528 1.361339 1.154701 1.316165 1.200590 1.066496 1.355618 0.873622 1.243564 1.238065 1.338249 1.303258 1.340267 1.142064 1.250226 1.209954 1.206551 1.227535 1.128472 1.323015 1.243094 1.304355 1.190727 1.182449 1.187873 1.243410 1.145540 1.373248 1.247657 1.205558 1.348274 1.304377 1.344555 1.315253 1.361715 1.245529 1.350719 1.245645 1.308900 1.208758 1.353535 1.364660 1.175256 0.917686 1.249321 1.389458
sido 0.314976 1.289297 1.215884 1.328534 1.317474 1.135547 1.298178 1.245564 1.361339 1.142977 1.267511 1.315402 1.145159 1.358162 0.923438 1.267627 1.268334 1.338249 1.303258 1.348705 1.204714 1.270680 1.211452 1.210814 1.257949 1.188992 1.329546 1.246735 1.309901 1.262838 1.237910 1.200714 1.225998 1.136894 1.257421 1.228135 1.289719 1.352485 1.272052 1.347701 1.315427 1.365184 1.234989 1.354559 1.222961 1.343894 1.279442 1.357114 1.364660 1.175256 1.149959 1.247018 1.362226
haya 0.546242 1.284793 1.209279 1.328534 1.315942 1.129820 1.292818 1.243303 1.361339 1.142251 1.264315 1.312989 1.135089 1.357073 0.916618 1.265644 1.266487 1.338249 1.303258 1.345096 1.201597 1.270411 1.210011 1.208989 1.257026 1.186754 1.326752 1.245176 1.307527 1.260326 1.235302 1.197872 1.216812 1.130906 1.340969 1.224336 1.287930 1.350682 1.269764 1.346354 1.315353 1.363698 1.233599 1.352915 1.221035 1.342571 1.279442 1.355581 1.364660 1.175256 1.142282 1.244865 1.358957
este 0.877375 0.954842 0.769937 0.915526 0.874801 0.762238 0.994371 0.756728 0.977319 0.612869 0.742260 0.935137 0.750858 0.980429 0.263128 0.866662 0.836361 0.945584 0.848109 0.972000 0.771388 0.835148 0.752280 0.775838 0.795815 0.746615 0.980800 0.825525 0.899045 0.840329 0.837889 0.730299 0.858126 0.689399 0.882604 0.746786 0.858853 0.961086 0.793565 0.918519 0.895503 0.981046 0.755315 0.969193 0.713530 0.969581 0.800210 0.969576 0.969787 0.652619 0.739287 0.787913 0.942004
especial 0.314976 1.289297 1.215884 1.328534 1.317474 1.135547 1.298178 1.245564 1.361339 1.142977 1.267511 1.315402 1.145159 1.358162 0.923438 1.267627 1.268334 1.338249 1.303258 1.348705 1.204714 1.270680 1.211452 1.210814 1.257949 1.188992 1.329546 1.246735 1.309901 1.262838 1.237910 1.200714 1.225998 1.136894 1.257421 1.228135 1.289719 1.352485 1.272052 1.347701 1.315427 1.365184 1.234989 1.354559 1.222961 1.343894 1.279442 1.357114 1.364660 1.175256 1.149959 1.247018 1.362226
crié 0.265116 1.291110 1.218540 1.328534 1.318091 1.137851 1.300336 1.246475 1.361339 1.143271 1.268799 1.316375 1.149200 1.358602 0.935228 1.268427 1.269078 1.338249 1.303258 1.350160 1.205970 1.270788 1.212033 1.211550 1.258321 1.189895 1.330673 1.247364 1.310857 1.263850 1.238962 1.201859 1.295368 1.177901 1.260431 1.229666 1.290440 1.353212 1.272974 1.348245 1.315457 1.365783 1.235550 1.355223 1.223738 1.344428 1.279442 1.357732 1.364660 1.175256 1.207616 1.247886 1.363543
nací 0.314976 1.289297 1.215884 1.328534 1.317474 1.135547 1.298178 1.245564 1.361339 1.142977 1.267511 1.315402 1.145159 1.358162 0.923438 1.267627 1.268334 1.338249 1.303258 1.348705 1.204714 1.270680 1.211452 1.210814 1.257949 1.188992 1.329546 1.246735 1.309901 1.262838 1.237910 1.200714 1.225998 1.136894 1.257421 1.228135 1.289719 1.352485 1.272052 1.347701 1.315427 1.365184 1.234989 1.354559 1.222961 1.343894 1.279442 1.357114 1.364660 1.175256 1.149959 1.247018 1.362226
toda 0.749373 1.088963 1.037883 1.133986 1.120968 0.953572 1.145453 1.037033 1.172248 0.909550 1.062843 1.163661 0.995110 1.188920 0.664851 1.075144 1.048428 1.145352 1.038508 1.162360 0.923756 1.062151 1.005094 1.011065 1.053360 1.000308 1.172247 1.064154 1.156532 1.090287 1.061922 1.006353 1.128072 0.965138 0.626526 1.030839 1.122099 1.167860 1.064183 1.139285 1.075736 1.163610 1.025889 1.189057 0.985087 1.135134 1.076054 1.180834 1.176103 0.935842 0.996847 1.053258 1.185316
en 1.012901 0.891069 0.881399 0.967155 0.993018 0.821768 1.041572 0.886059 1.021525 0.715730 0.933411 0.971591 0.861112 0.989041 0.341888 0.887907 0.814799 0.965667 0.744193 0.853060 0.770035 0.749079 0.802902 0.756435 0.864866 0.760620 0.997373 0.804275 0.903444 0.877020 0.858527 0.562293 0.973788 0.761899 0.985398 0.890786 0.924055 0.988026 0.914542 0.969822 0.736109 0.922063 0.822467 0.942241 0.519547 0.975956 0.879196 0.930006 1.010353 0.542392 0.754595 0.695115 1.056326
vida 1.309809 0.360671 1.280532 1.328534 1.342081 1.170189 1.330701 1.272884 1.361339 1.154701 1.318291 1.297878 1.196094 1.375722 0.949625 1.135053 1.102869 1.338249 1.212122 1.315366 1.156503 1.230023 1.230575 1.229699 1.246044 1.196092 1.374097 1.268532 1.329693 1.244451 1.235959 1.183668 1.366444 1.167326 1.304311 1.279544 1.276746 1.359135 1.302845 1.335467 1.233850 1.332919 1.252780 1.380968 1.181575 1.314546 1.241590 1.345914 1.364660 1.129707 1.122226 1.232517 1.414214
la 0.974195 0.890210 0.911708 0.949853 0.976553 0.809964 1.032369 0.862496 1.010828 0.701691 0.919958 0.954267 0.869067 1.005852 0.310652 0.855176 0.761492 0.956962 0.718144 0.934331 0.542321 0.827188 0.789794 0.797476 0.797582 0.769610 1.002486 0.849624 0.938272 0.887001 0.856710 0.755664 0.925603 0.689619 0.763998 0.871419 0.895577 0.929567 0.884317 0.881233 0.800457 0.934695 0.827647 0.984692 0.713151 0.851558 0.852924 0.994377 0.998890 0.640124 0.725422 0.828199 1.054372
colonia 1.134102 0.715462 1.066425 1.086148 1.138446 0.969441 1.160259 1.041622 1.163291 0.912871 1.109723 1.124585 0.974035 1.144661 0.668274 0.550811 0.971441 1.136183 1.045412 1.116245 0.844404 1.007791 0.975193 0.992754 0.978319 0.973132 1.118078 1.046335 1.137663 1.047894 0.993015 0.974931 1.154951 0.962159 1.140521 1.037467 1.057614 1.174807 1.093935 1.130982 1.064595 1.150186 1.006789 1.167030 0.984608 1.085929 1.045474 1.135031 1.167175 0.892872 0.940448 1.010280 1.211043
doctores 1.314798 0.387341 1.283147 1.328534 1.342081 1.173982 1.334272 1.273486 1.361339 1.154701 1.318291 1.301770 1.203280 1.375722 0.955268 1.132730 1.097665 1.338249 1.218540 1.321729 1.163413 1.233138 1.230849 1.230406 1.247885 1.198064 1.374097 1.268752 1.330935 1.248517 1.238969 1.188008 1.366444 1.171697 1.309118 1.280137 1.279624 1.360663 1.303238 1.337802 1.239659 1.336815 1.253090 1.380968 1.186629 1.318054 1.244202 1.348382 1.364660 1.132865 1.132746 1.235909 1.414214
cerca 1.314798 0.387341 1.283147 1.328534 1.342081 1.173982 1.334272 1.273486 1.361339 1.154701 1.318291 1.301770 1.203280 1.375722 0.955268 1.132730 1.097665 1.338249 1.218540 1.321729 1.163413 1.233138 1.230849 1.230406 1.247885 1.198064 1.374097 1.268752 1.330935 1.248517 1.238969 1.188008 1.366444 1.171697 1.309118 1.280137 1.279624 1.360663 1.303238 1.337802 1.239659 1.336815 1.253090 1.380968 1.186629 1.318054 1.244202 1.348382 1.364660 1.132865 1.132746 1.235909 1.414214
del 1.145344 0.700062 1.101162 1.133428 1.149277 0.979527 1.168699 1.070072 1.171709 0.923574 1.092602 1.108335 1.042567 1.177357 0.661595 0.999976 0.488561 1.144800 0.947570 1.091896 0.924607 1.038497 1.010450 0.982582 1.035857 0.956016 1.173927 1.016799 1.081605 1.059857 1.015045 0.928864 1.095868 0.756096 1.106773 1.076075 1.080452 1.084522 1.081836 1.128330 1.052225 1.077031 1.039479 1.134130 0.906022 1.114918 1.054833 1.176373 1.175566 0.900505 0.956279 1.015471 1.232743
niño 1.312793 0.411929 1.282096 1.328534 1.342081 1.172457 1.332836 1.273244 1.361339 1.154701 1.318291 1.353952 1.235005 1.375722 0.970119 1.133792 1.099936 1.338249 1.215962 1.319173 1.166787 1.242397 1.230738 1.230121 1.261705 1.224745 1.374097 1.268663 1.330435 1.246882 1.237759 1.186263 1.366444 1.169940 1.307186 1.284227 1.318403 1.360048 1.303080 1.336863 1.237325 1.335249 1.252965 1.380968 1.184598 1.333249 1.279442 1.347390 1.364660 1.131595 1.168353 1.234545 1.414214
perdido 1.307305 0.385020 1.279221 1.328534 1.342081 1.168286 1.328910 1.272583 1.361339 1.154701 1.318291 1.353952 1.229989 1.375722 0.965756 1.135847 1.104963 1.338249 1.208897 1.312169 1.159701 1.239819 1.230437 1.229344 1.260834 1.224745 1.374097 1.268421 1.329071 1.242411 1.234449 1.181490 1.366444 1.165132 1.301899 1.283915 1.318403 1.358370 1.302649 1.334297 1.230932 1.330965 1.252625 1.380968 1.179037 1.330728 1.279442 1.344677 1.364660 1.128123 1.160227 1.230816 1.414214
risa 1.104067 1.060058 1.029660 1.048016 1.065136 0.912871 1.115328 0.986049 1.089302 0.816497 0.994080 1.080056 0.995737 1.107223 0.584431 0.996319 0.934797 0.857407 0.931655 1.080026 0.902191 0.963749 0.907592 0.913644 0.905762 0.905057 1.094103 0.971445 1.064348 1.005033 0.959836 0.886558 1.085391 0.874188 1.074238 0.978344 1.006528 1.082340 0.990420 1.084505 0.996159 0.829164 0.894845 1.109286 0.898126 1.079519 0.803634 1.087671 1.065816 0.805816 0.880007 0.969930 1.113115
ajá 1.381311 1.360289 1.318440 1.328534 1.342081 1.224745 1.382253 1.281694 1.361339 1.154701 1.318291 1.353952 1.297685 1.375722 1.036194 1.299383 1.297932 0.457263 1.303258 1.405979 1.254208 1.275033 1.234597 1.240053 1.272826 1.224745 1.374097 1.271764 1.347830 1.302922 1.279486 1.245916 1.366444 1.229996 1.373248 1.288228 1.318403 1.381409 1.308604 1.369378 1.316638 1.120434 1.240233 1.380968 1.253795 1.365189 1.165206 1.381743 1.364660 1.175256 1.268057 1.281451 1.414214
entonces 0.968543 0.951509 0.779336 0.848350 0.932724 0.780836 1.009725 0.749801 0.986947 0.642912 0.885646 0.938794 0.825297 0.982892 0.330436 0.777304 0.857502 0.954845 0.843418 0.992519 0.691514 0.800661 0.655238 0.760677 0.838658 0.733345 0.963147 0.812958 0.932540 0.838350 0.816560 0.742156 0.925831 0.749997 0.963662 0.763118 0.859748 0.986483 0.829421 0.858038 0.861490 0.978613 0.656138 0.898196 0.711214 0.950837 0.870511 0.898554 0.973238 0.551939 0.746477 0.720306 0.901116
el 1.007895 0.955348 0.833256 0.972539 1.001820 0.821967 1.040916 0.893262 1.033389 0.730818 0.952899 0.985143 0.794725 0.935883 0.371726 0.890687 0.851309 1.002776 0.863242 0.773846 0.820462 0.754409 0.819591 0.787161 0.863618 0.792509 1.008935 0.767257 0.934696 0.912240 0.868400 0.601656 0.981382 0.781160 1.023151 0.884630 0.928212 0.997298 0.930492 1.001395 0.866371 0.975265 0.845630 0.893817 0.491796 0.998415 0.901828 0.977068 1.037761 0.606427 0.820342 0.677577 1.068092
familia 1.266551 1.312875 0.280446 1.260198 1.309922 1.165393 1.326188 1.209928 1.361339 1.104027 1.251092 1.292957 1.177194 1.337876 0.972392 1.257067 1.290192 1.338249 1.303258 1.322137 1.211781 1.241626 1.192161 1.232474 1.272826 1.193604 1.374097 1.222346 1.303257 1.290463 1.265217 1.196619 1.331185 1.208964 1.338529 1.203875 1.311720 1.381409 1.198546 1.267710 1.311119 1.389065 1.164464 1.321393 1.148351 1.365189 1.279442 1.296164 1.364660 1.125143 1.224553 1.176643 1.283585
una 0.977575 0.985572 0.687012 0.930504 0.953798 0.803756 1.026909 0.802403 0.984857 0.622565 0.896279 0.835587 0.824775 1.002827 0.371065 0.891252 0.881589 0.983281 0.899814 0.999417 0.795372 0.878837 0.798195 0.813340 0.828156 0.715881 1.009386 0.823942 0.830446 0.830045 0.837322 0.787237 0.960792 0.765391 0.974072 0.833014 0.867357 0.973862 0.749590 0.805723 0.921476 1.018994 0.820354 1.005832 0.795222 0.992200 0.851639 0.877357 0.974320 0.708430 0.815859 0.849247 1.035102
grande 1.156437 1.181115 0.509992 1.072007 1.126266 1.022080 1.206346 1.011217 1.182325 0.884104 1.001088 1.116158 1.058360 1.177988 0.731290 1.058255 1.108727 1.155663 1.114956 1.201774 0.995296 0.988418 0.895538 1.017429 1.079228 0.982108 1.183616 1.043636 1.124572 1.090248 1.061309 1.001699 1.138549 0.997616 1.159768 1.002071 1.097194 1.205378 1.010541 1.091162 1.125070 1.172500 0.664676 1.155113 0.973164 1.186755 1.087022 1.107538 1.186147 0.839381 0.883282 1.014266 0.717565
ca 1.264338 1.311985 0.364202 1.258904 1.309322 1.164270 1.325132 1.205539 1.361339 1.075946 1.249819 1.246912 1.174857 1.337168 0.966612 1.256274 1.290049 1.338249 1.303258 1.320542 1.210985 1.241002 1.191364 1.232333 1.272826 1.170529 1.374097 1.217801 1.269994 1.281362 1.258928 1.195691 1.330526 1.208573 1.337880 1.196011 1.311596 1.381409 1.147934 1.221351 1.308736 1.389065 1.162683 1.320270 1.146317 1.365189 1.279442 1.253335 1.364660 1.124199 1.223737 1.174623 1.281052
éramos 1.266301 1.312774 0.346598 1.260052 1.309854 1.165266 1.326068 1.206799 1.361339 1.077256 1.259227 1.248703 1.176930 1.337796 0.968155 1.256978 1.290176 1.338249 1.303258 1.321957 1.211691 1.241556 1.197153 1.232458 1.272826 1.171419 1.374097 1.218686 1.271281 1.281711 1.259261 1.196514 1.331110 1.208920 1.338455 1.197548 1.311706 1.381409 1.150691 1.223869 1.308864 1.389065 1.203082 1.321266 1.148121 1.365189 1.279442 1.255500 1.364660 1.125037 1.249661 1.176415 1.379983
somos 1.381311 1.360289 1.250834 0.484764 1.184409 1.224745 1.382253 1.227272 1.361339 1.095020 1.313541 1.353952 1.297685 1.375722 1.036560 1.239845 1.297932 1.338249 1.303258 1.405979 1.184585 1.275033 1.179612 1.240053 1.272826 1.224745 1.374097 1.266063 1.347830 1.302922 1.275086 1.245916 1.366444 1.229996 1.373248 1.239427 1.307539 1.381409 1.297204 1.301539 1.312910 1.389065 1.191638 1.343344 1.231882 1.365189 1.279442 1.333643 1.364660 1.123044 1.253181 1.220830 1.414214
hermanos 1.169559 1.162061 1.053370 0.688614 0.634876 1.000000 1.187696 1.020536 1.098736 0.736578 1.082081 1.154637 1.080027 1.180089 0.755712 1.056304 1.088406 1.136183 1.094751 1.215227 0.995730 1.060994 0.979062 1.018691 1.058341 1.000000 1.178195 1.053771 1.147452 1.083995 1.056714 1.022354 1.151932 0.995589 1.160171 1.030402 1.106564 1.186714 1.075790 1.134972 1.108525 1.195617 0.994584 1.165263 1.008755 1.167793 1.066288 1.160378 1.167175 0.907517 1.039317 1.030314 1.208155
ah 1.094896 1.106100 1.063560 1.124724 1.140693 0.000000 1.121852 1.068990 1.163291 0.912871 1.112606 1.154637 1.002028 1.180089 0.739206 1.083213 1.079151 1.136183 1.094751 1.186470 1.035876 1.060994 1.012042 1.018691 1.058341 1.000000 1.178195 1.057063 1.147452 1.094352 1.066341 1.025820 1.169260 1.006424 1.177205 1.071385 1.112738 1.186714 1.101111 1.172688 1.110646 1.195617 1.039653 1.186201 1.035376 1.167793 1.066288 1.187103 1.167175 0.938737 1.052601 1.049744 1.224745
catorce 1.381311 1.360289 1.250834 0.484764 1.184409 1.224745 1.382253 1.227272 1.361339 1.095020 1.313541 1.353952 1.297685 1.375722 1.036560 1.239845 1.297932 1.338249 1.303258 1.405979 1.184585 1.275033 1.179612 1.240053 1.272826 1.224745 1.374097 1.266063 1.347830 1.302922 1.275086 1.245916 1.366444 1.229996 1.373248 1.239427 1.307539 1.381409 1.297204 1.301539 1.312910 1.389065 1.191638 1.343344 1.231882 1.365189 1.279442 1.333643 1.364660 1.123044 1.253181 1.220830 1.414214
caramba 1.381311 1.360289 1.318440 1.328534 1.342081 1.224745 0.298960 1.281694 1.361339 1.154701 1.318291 1.353952 1.297685 1.375722 1.045125 1.299383 1.297932 1.338249 1.303258 1.405979 1.254208 1.275033 1.234597 1.240053 1.272826 1.224745 1.374097 1.271764 1.347830 1.302922 1.279486 1.245916 1.366444 1.229996 1.373248 1.288228 1.318403 1.381409 1.308604 1.369378 1.316638 1.389065 1.257330 1.380968 1.253795 1.365189 1.279442 1.381743 1.364660 1.175256 1.268057 1.281451 1.414214
había 1.069548 1.068406 0.994946 1.027597 1.054663 0.910998 1.113795 0.712062 1.087733 0.810236 0.999539 1.019373 0.965607 1.083247 0.549799 0.951354 0.941192 1.058692 0.981318 1.094768 0.891158 0.897365 0.881351 0.482810 0.964584 0.674604 0.756131 0.865446 1.014460 0.889774 0.916320 0.560581 1.041858 0.853444 1.093156 0.950122 1.012582 1.031203 0.988686 1.031963 1.001954 1.063032 0.925412 1.049020 0.838429 1.078728 0.983305 1.061422 1.091886 0.797908 0.897002 0.917111 1.123214
muchas 1.176831 1.160048 1.102667 1.123848 1.157644 1.037814 1.219705 0.488420 1.195953 0.907178 1.115582 1.164671 1.098242 1.201905 0.748039 1.087749 1.106619 1.169602 1.096020 1.234855 1.019679 1.094063 1.014246 0.995368 1.085111 0.988460 1.143626 1.068770 1.158022 0.618338 1.040635 0.866454 1.159269 1.011581 1.191977 1.064742 1.126183 1.201673 1.089848 1.046408 1.136339 1.213334 1.041604 1.190864 1.011975 1.187706 1.101830 1.161061 1.160474 0.961901 1.016291 1.078528 1.225848
veces 1.349849 1.360289 1.242804 1.266850 1.313012 1.224745 1.382253 0.386728 1.361339 1.142595 1.265071 1.353952 1.283151 1.375722 1.006853 1.266528 1.297932 1.338249 1.303258 1.405979 1.215876 1.275033 1.202552 1.178105 1.272826 1.178467 1.302681 1.262367 1.347830 1.098105 1.277034 1.141633 1.334575 1.210978 1.341866 1.228105 1.312356 1.381409 1.245486 1.193801 1.307361 1.389065 1.208445 1.360116 1.217032 1.365189 1.279442 1.355131 1.364660 1.146434 1.251455 1.241385 1.383337
para 1.069783 1.066744 0.932998 1.001080 1.043674 0.914876 1.116969 0.469931 1.090982 0.767838 0.993283 1.017651 0.925267 1.077876 0.547669 0.961889 0.983549 1.062030 0.969226 1.080960 0.869133 0.975486 0.887922 0.884169 0.920393 0.849299 1.047662 0.945764 1.001663 0.710247 0.942813 0.809613 1.030892 0.865735 1.019548 0.932978 0.976108 1.066362 0.894004 0.829188 0.998353 1.113814 0.914257 1.082775 0.880959 1.069010 0.959399 1.034180 1.058579 0.810846 0.914147 0.945796 1.126773
paseos 1.349849 1.360289 1.242804 1.266850 1.313012 1.224745 1.382253 0.386728 1.361339 1.142595 1.265071 1.353952 1.283151 1.375722 1.006853 1.266528 1.297932 1.338249 1.303258 1.405979 1.215876 1.275033 1.202552 1.178105 1.272826 1.178467 1.302681 1.262367 1.347830 1.098105 1.277034 1.141633 1.334575 1.210978 1.341866 1.228105 1.312356 1.381409 1.245486 1.193801 1.307361 1.389065 1.208445 1.360116 1.217032 1.365189 1.279442 1.355131 1.364660 1.146434 1.251455 1.241385 1.383337
ni 1.349849 1.360289 1.242804 1.266850 1.313012 1.224745 1.382253 0.386728 1.361339 1.142595 1.265071 1.353952 1.283151 1.375722 1.006853 1.266528 1.297932 1.338249 1.303258 1.405979 1.215876 1.275033 1.202552 1.178105 1.272826 1.178467 1.302681 1.262367 1.347830 1.098105 1.277034 1.141633 1.334575 1.210978 1.341866 1.228105 1.312356 1.381409 1.245486 1.193801 1.307361 1.389065 1.208445 1.360116 1.217032 1.365189 1.279442 1.355131 1.364660 1.146434 1.251455 1.241385 1.383337
juegos 1.349849 1.360289 1.242804 1.266850 1.313012 1.224745 1.382253 0.386728 1.361339 1.142595 1.265071 1.353952 1.283151 1.375722 1.006853 1.266528 1.297932 1.338249 1.303258 1.405979 1.215876 1.275033 1.202552 1.178105 1.272826 1.178467 1.302681 1.262367 1.347830 1.098105 1.277034 1.141633 1.334575 1.210978 1.341866 1.228105 1.312356 1.381409 1.245486 1.193801 1.307361 1.389065 1.208445 1.360116 1.217032 1.365189 1.279442 1.355131 1.364660 1.146434 1.251455 1.241385 1.383337
por 1.027720 1.002704 0.940980 0.972391 1.015285 0.862712 1.074660 0.899005 1.047624 0.757067 0.969586 0.991177 0.903153 1.036113 0.432683 0.924950 0.770889 1.017439 0.785924 1.011513 0.787319 0.882284 0.811078 0.711375 0.898826 0.753448 1.008794 0.871869 0.976993 0.928500 0.846089 0.735347 0.850969 0.660973 1.022281 0.890102 0.933155 0.999382 0.956423 1.005705 0.882460 1.019440 0.861401 0.691527 0.633794 1.004622 0.926972 1.017988 1.038270 0.614961 0.836957 0.667438 1.093904
lo 1.013517 1.008791 0.939975 0.965785 1.000041 0.853138 1.066990 0.891605 1.039754 0.742125 0.937889 0.956321 0.831652 1.031789 0.413085 0.909832 0.871808 0.993880 0.750263 1.039375 0.783918 0.881879 0.634950 0.828582 0.833899 0.779690 1.029757 0.897245 0.972530 0.920507 0.897212 0.831404 0.794798 0.668772 1.008660 0.700672 0.743605 0.992157 0.911656 1.000723 0.915030 1.030210 0.807668 0.981069 0.800956 0.990773 0.831422 1.017372 0.952568 0.676016 0.801565 0.834052 1.055346
general 1.381311 1.275970 1.318440 1.328534 1.342081 1.224745 1.382253 1.269741 1.361339 1.154701 1.266489 1.353952 1.297685 1.375722 0.955337 1.289204 1.101450 1.281646 0.382550 1.318083 1.119239 1.236728 1.176902 1.195115 1.233716 1.187106 1.374097 1.262729 1.329953 1.245303 1.272562 1.177775 1.280419 1.134149 1.256080 1.247058 1.264552 1.344028 1.298978 1.312290 1.129067 1.318917 1.251376 1.298702 1.074340 1.309118 1.201255 1.296188 1.295638 1.064253 1.147556 1.190127 1.414214
estaba 1.337172 1.360289 1.315410 1.328534 1.342081 1.224745 1.382253 1.211360 1.361339 1.154701 1.316272 1.312020 1.268205 1.356635 0.991183 1.201293 1.278439 1.338249 1.303258 1.384402 1.190947 1.243035 1.207965 1.018222 1.256656 1.075410 0.347250 1.099740 1.306574 1.259316 1.180455 1.066930 1.321730 1.192470 1.373248 1.265247 1.287212 1.349958 1.304590 1.345813 1.315323 1.363102 1.246124 1.352255 1.246056 1.342039 1.279442 1.354966 1.364660 1.175256 1.209659 1.276531 1.390713
jugaba 1.381311 1.275970 1.318440 1.328534 1.342081 1.224745 1.382253 1.269741 1.361339 1.154701 1.266489 1.353952 1.297685 1.375722 0.955337 1.289204 1.101450 1.281646 0.382550 1.318083 1.119239 1.236728 1.176902 1.195115 1.233716 1.187106 1.374097 1.262729 1.329953 1.245303 1.272562 1.177775 1.280419 1.134149 1.256080 1.247058 1.264552 1.344028 1.298978 1.312290 1.129067 1.318917 1.251376 1.298702 1.074340 1.309118 1.201255 1.296188 1.295638 1.064253 1.147556 1.190127 1.414214
calle 1.121600 1.009230 1.020827 1.077455 1.083227 0.946523 1.143035 0.992912 1.117654 0.848223 1.003655 1.093914 1.012567 1.103708 0.552868 1.028254 0.637968 1.066967 0.607221 0.983334 0.850434 0.952273 0.925638 0.907634 0.976310 0.907475 1.125534 0.943716 1.047203 0.982820 0.984797 0.776218 1.004973 0.702170 1.016003 0.990254 1.032041 1.058393 1.016129 1.069311 0.913165 1.041080 0.973960 0.996016 0.597297 1.065171 0.984670 1.093918 1.094658 0.740286 0.909204 0.840340 1.168589
resulta 1.340410 1.360289 1.315629 1.328534 1.342081 1.224745 1.382253 1.216578 1.361339 1.154701 1.316418 1.315094 1.270358 1.358023 0.993219 1.208646 1.279858 1.338249 1.303258 1.385972 1.195630 1.245374 1.209909 1.027995 1.257831 1.086886 0.154382 1.101922 1.309598 1.262517 1.187886 1.080854 1.325011 1.195221 1.373248 1.266921 1.289490 1.352255 1.304880 1.347529 1.315418 1.364994 1.246937 1.354350 1.246617 1.343725 1.279442 1.356918 1.364660 1.175256 1.213972 1.276887 1.392424
como 1.031193 0.989428 0.915694 0.977712 1.003579 0.850540 1.064913 0.788835 1.037623 0.697951 0.949717 0.951713 0.853496 1.029016 0.413182 0.910432 0.887447 0.992768 0.750701 1.010111 0.811282 0.901011 0.783383 0.837701 0.828443 0.786858 1.028972 0.859237 0.945892 0.727930 0.878138 0.774627 0.968422 0.789268 0.970073 0.884703 0.870530 1.017026 0.898235 0.932830 0.912855 1.017629 0.872813 1.021843 0.796394 1.015860 0.848102 0.831166 0.838633 0.725845 0.817891 0.867973 1.085258
puso 1.340088 1.360289 1.227323 1.328534 1.342081 1.224745 1.382253 1.268188 1.361339 1.111870 1.168943 1.189758 1.297685 1.336075 0.970949 1.299383 1.188466 1.338249 1.303258 1.361122 1.203924 1.265263 1.222540 1.209182 1.239259 1.142443 1.328836 1.146067 0.498208 1.247270 1.227113 1.168391 1.324685 1.144958 1.373248 1.278632 1.253249 1.241709 1.226424 1.249752 1.310186 1.389065 1.257330 1.343500 1.246561 1.317018 1.279442 1.317881 1.364660 1.175256 1.233157 1.281451 1.414214
todos 1.211046 1.097653 1.138812 1.150484 1.166101 1.028888 1.212119 1.087188 1.188215 0.944428 1.109239 1.179745 1.114718 1.204666 0.718387 1.105806 0.983026 1.129745 0.508011 1.146946 0.946298 1.040542 1.003388 1.013216 1.057526 1.006878 1.202811 1.076586 1.148125 1.088000 1.087303 0.968319 1.124852 0.971828 1.103312 1.080103 1.101321 1.179742 1.112064 1.106429 0.598839 1.142515 1.034110 1.139158 0.876614 1.145339 1.048735 1.134658 1.153376 0.712165 0.975380 0.940747 1.248443
aquellas 1.346577 1.324717 1.241922 1.328534 1.342081 1.224745 1.382253 1.267299 1.361339 1.118634 1.193380 1.216730 1.232912 1.342313 0.945712 1.295019 1.199856 1.338249 1.262837 1.282386 1.211875 1.237757 1.219143 1.201723 1.220511 1.155618 1.335970 1.162742 0.436660 1.256081 1.235397 1.130906 1.288210 1.132034 1.373248 1.275970 1.223671 1.217431 1.239553 1.269083 1.261489 1.352103 1.254775 1.349391 1.195023 1.324619 1.220066 1.288292 1.364660 1.138324 1.209087 1.230450 1.414214
los 1.055009 1.000840 0.990589 1.023632 1.031882 0.884771 1.092448 0.941946 1.065863 0.779899 0.743509 0.996818 0.919289 1.079952 0.446013 0.966631 0.915792 0.892454 0.798719 1.064587 0.838175 0.928418 0.864568 0.883908 0.760770 0.834805 1.067411 0.926262 0.988034 0.947084 0.934143 0.854825 1.000596 0.823412 1.024236 0.932437 0.921575 1.042810 0.972382 1.048539 0.940916 1.013188 0.897803 1.082881 0.854705 1.035815 0.646404 1.051933 1.022996 0.778545 0.666867 0.931893 1.075539
resultó 1.347428 1.325589 1.243828 1.328534 1.342081 1.224745 1.382253 1.267649 1.361339 1.119520 1.268862 1.220232 1.234519 1.343131 0.955506 1.295125 1.202323 1.338249 1.263830 1.285515 1.212917 1.238672 1.219519 1.202665 1.221803 1.157339 1.336905 1.165500 0.390323 1.257234 1.236482 1.133826 1.290158 1.134503 1.373248 1.276268 1.226049 1.221657 1.241269 1.271602 1.262851 1.353009 1.254837 1.350163 1.196479 1.325615 1.221536 1.290632 1.364660 1.139232 1.210548 1.231708 1.414214
tercero 1.344135 1.360289 1.318440 1.328534 1.342081 1.224745 1.382253 1.270567 1.361339 1.154701 1.184228 1.274768 1.228293 1.339965 0.965589 1.299383 1.199503 1.338249 1.303258 1.315857 1.208885 1.266212 1.219796 1.207936 1.216800 1.184443 1.333286 1.164465 0.377071 1.266200 1.241400 1.176121 1.282607 1.124923 1.373248 1.283809 1.216828 1.205231 1.301119 1.325163 1.314188 1.389065 1.257330 1.347173 1.247263 1.321759 1.215840 1.381743 1.364660 1.175256 1.236579 1.266096 1.414214
niños 1.381311 1.268195 1.318440 1.328534 1.342081 1.224745 1.382253 1.268672 1.361339 1.154701 1.261776 1.353952 1.297685 1.375722 0.963343 1.288295 1.146756 1.276488 0.462520 1.309976 1.106432 1.233262 1.222667 1.226906 1.230175 1.224745 1.374097 1.261922 1.328350 1.240047 1.279486 1.171520 1.366444 1.157936 1.245120 1.288228 1.318403 1.340651 1.298118 1.307089 1.110843 1.312493 1.250845 1.380968 1.090653 1.304012 1.194049 1.288300 1.289317 1.081861 1.136215 1.244871 1.414214
primaria 1.357698 1.360289 1.261906 1.264460 1.338359 1.224745 1.382253 1.247324 1.361339 1.154701 1.304001 1.353952 1.268614 1.375722 1.007905 1.239941 1.297932 1.338249 1.261941 1.405979 1.184698 1.194088 0.430182 1.201254 1.272826 1.207877 1.348188 1.263776 1.347830 1.279602 1.252714 1.220520 1.280226 1.215709 1.373248 1.192601 1.242624 1.288220 1.302019 1.330541 1.314482 1.363461 1.106772 1.348772 1.236953 1.365189 1.279442 1.327160 1.258067 1.113581 1.187578 1.241740 1.274893
gustaba 1.080210 1.084408 0.989307 1.088970 1.093556 0.935229 1.132265 0.941811 1.128759 0.845026 1.051845 1.032590 0.600884 1.035992 0.533657 0.929538 1.013534 1.100801 1.008394 0.990578 0.888332 0.990689 0.948763 0.952881 0.639449 0.904999 1.114809 0.975275 1.014213 0.964735 0.995145 0.924183 1.012957 0.872454 1.029202 0.917430 0.894065 1.066805 0.993400 1.041432 1.055066 1.118545 0.987349 1.118628 0.918180 1.059209 0.847652 1.096189 1.074091 0.883222 0.949302 0.962742 1.168270
haciendo 1.357698 1.360289 1.261906 1.264460 1.338359 1.224745 1.382253 1.247324 1.361339 1.154701 1.304001 1.353952 1.268614 1.375722 1.007905 1.239941 1.297932 1.338249 1.261941 1.405979 1.184698 1.194088 0.430182 1.201254 1.272826 1.207877 1.348188 1.263776 1.347830 1.279602 1.252714 1.220520 1.280226 1.215709 1.373248 1.192601 1.242624 1.288220 1.302019 1.330541 1.314482 1.363461 1.106772 1.348772 1.236953 1.365189 1.279442 1.327160 1.258067 1.113581 1.187578 1.241740 1.274893
mucho 0.979095 0.977238 0.900612 0.980793 0.999529 0.817227 1.036710 0.870276 1.036277 0.729996 0.956036 0.915493 0.618253 0.889994 0.361536 0.778626 0.916017 1.005752 0.927595 0.937142 0.772941 0.884175 0.817643 0.839009 0.679940 0.775967 1.004694 0.870714 0.933905 0.895874 0.878289 0.819607 0.927132 0.773633 0.993683 0.842701 0.733356 0.985958 0.915758 0.983114 0.966225 1.031454 0.851854 1.022585 0.824705 0.973768 0.761011 1.021898 0.965837 0.735888 0.842279 0.837619 1.079358
cuentas 1.357698 1.360289 1.261906 1.264460 1.338359 1.224745 1.382253 1.247324 1.361339 1.154701 1.304001 1.353952 1.268614 1.375722 1.007905 1.239941 1.297932 1.338249 1.261941 1.405979 1.184698 1.194088 0.430182 1.201254 1.272826 1.207877 1.348188 1.263776 1.347830 1.279602 1.252714 1.220520 1.280226 1.215709 1.373248 1.192601 1.242624 1.288220 1.302019 1.330541 1.314482 1.363461 1.106772 1.348772 1.236953 1.365189 1.279442 1.327160 1.258067 1.113581 1.187578 1.241740 1.274893
pasear 1.100040 1.062924 0.930843 1.092317 1.091466 0.945866 1.141458 0.956857 1.131989 0.850883 1.045262 1.077460 0.854939 1.043744 0.548044 1.005545 0.990999 1.104113 0.975034 0.716724 0.979289 0.909107 0.959951 0.940029 0.935738 0.938782 1.133727 0.916208 1.012899 0.975104 0.996011 0.714290 1.052834 0.895446 1.074291 0.997564 1.010961 1.083384 1.006174 1.081568 0.979958 1.065830 0.988755 1.036895 0.564193 1.122139 0.981041 1.063586 1.112529 0.766544 0.955122 0.802697 1.174533
amigos 1.360136 1.327407 1.318440 1.328534 1.342081 1.224745 1.382253 1.275880 1.361339 1.154701 1.318291 1.309170 1.297685 1.355351 0.989466 1.207877 1.240032 1.338249 1.246291 1.348093 0.916476 1.003935 1.221876 1.218958 1.197580 1.201819 1.350866 1.247870 1.303771 1.282011 1.257806 1.222182 1.269608 1.142876 1.297008 1.288228 1.285101 1.322620 1.297947 1.306052 1.276559 1.366033 1.254966 1.361708 1.225604 0.359875 1.279442 1.381743 1.364660 1.163645 1.223050 1.281451 1.414214
mejor 1.173350 1.162061 1.080626 1.088427 1.138577 1.000000 1.187696 1.042430 1.163291 0.912871 1.104434 1.108157 1.053602 1.180089 0.725835 1.056133 1.088406 1.136183 1.057148 1.215227 0.995526 1.014434 0.521748 0.995960 1.004785 0.964935 1.163633 1.048548 1.147452 1.042965 1.050860 1.010951 1.155787 0.997996 1.177205 1.041382 1.007510 1.134904 1.075402 1.150869 1.109411 1.144429 0.950452 1.168153 1.025534 1.167793 1.004107 1.124605 0.625799 0.901651 1.006190 1.037804 1.148417
era 0.942870 0.970175 0.878150 0.984798 0.988873 0.789727 1.014188 0.859789 1.028625 0.712092 0.882709 0.898208 0.604174 0.980534 0.289772 0.882383 0.868906 0.972466 0.894269 0.911151 0.803544 0.885229 0.807658 0.817501 0.684615 0.753073 1.014020 0.854478 0.855523 0.885655 0.878255 0.792110 0.880418 0.723158 0.978766 0.850576 0.740736 0.913592 0.896333 0.972996 0.943702 1.014108 0.859597 1.011301 0.792565 0.993085 0.709656 1.009035 0.959527 0.723744 0.777017 0.812398 1.071777
bonita 1.360930 1.298647 1.318440 1.328534 1.342081 1.224745 1.382253 1.276097 1.361339 1.154701 1.318291 1.249186 1.261222 1.356114 0.972593 1.204849 1.233703 1.338249 1.248458 1.350292 0.922698 1.001046 1.222352 1.219750 1.183505 1.171659 1.351737 1.248768 1.305437 1.282795 1.258620 1.223073 1.273344 1.146237 1.299926 1.283451 1.240934 1.324855 1.298345 1.308464 1.278073 1.366897 1.255054 1.362430 1.226665 0.386982 1.239210 1.381743 1.364660 1.164079 1.182694 1.281451 1.414214
tenía 1.166670 1.143772 1.083123 1.089310 1.138628 1.000000 1.187696 1.044389 1.163291 0.912871 1.076018 1.112131 1.050166 1.160888 0.693853 1.068696 0.980678 1.136183 1.038826 1.147958 0.934868 1.005948 0.506898 0.929264 1.019831 0.936185 1.156286 0.996208 1.041041 1.074213 1.023696 0.956488 1.089612 0.919319 1.135195 1.028815 1.013606 0.704549 1.069991 1.105572 1.086298 1.150219 0.958280 1.156029 0.985628 1.123584 1.031265 1.171983 1.109218 0.895348 0.996949 1.040472 1.163563
ciudad 1.109013 1.143935 1.070305 1.158805 1.144339 1.038184 1.220020 1.000105 1.196274 0.923509 1.086960 1.145488 1.003933 1.179172 0.694254 1.096288 1.057056 1.169930 1.011053 1.118476 0.914202 1.083184 1.036992 1.045446 1.002749 1.015730 1.201613 1.078881 1.119256 1.060104 1.089987 1.026734 1.125626 0.963956 0.515719 1.061259 1.086159 1.136437 1.050554 1.075188 1.080287 1.192240 1.057809 1.210975 0.976787 1.133183 1.060102 1.175784 1.169793 0.960360 1.028543 1.082006 1.220240
nueve 1.358024 1.360289 1.262698 1.265360 1.338410 1.224745 1.382253 1.247801 1.361339 1.154701 1.304198 1.353952 1.269016 1.375722 1.009696 1.240775 1.297932 1.338249 1.262516 1.405979 1.185678 1.195234 0.414190 1.210220 1.272826 1.208109 1.348547 1.263886 1.347830 1.279925 1.253085 1.220871 1.281447 1.215906 1.373248 1.193963 1.243694 1.381409 1.302109 1.331081 1.314511 1.363815 1.108973 1.349219 1.237185 1.365189 1.279442 1.327923 1.259588 1.114449 1.188718 1.242293 1.276905
excepto 1.381311 1.360289 1.318440 1.328534 1.342081 1.224745 1.382253 1.281694 1.361339 1.154701 1.223218 1.353952 1.297685 1.375722 1.012922 1.299383 1.297932 0.457263 1.197014 1.405979 1.254208 1.275033 1.234597 1.240053 1.183872 1.224745 1.374097 1.271764 1.347830 1.302922 1.279486 1.245916 1.366444 1.229996 1.373248 1.288228 1.318403 1.381409 1.308604 1.369378 1.316638 1.239870 1.247411 1.380968 1.253795 1.365189 0.946553 1.381743 1.364660 1.175256 1.177520 1.281451 1.414214
sólo 1.381311 1.360289 1.318440 1.328534 1.247421 1.224745 1.382253 1.281694 0.443316 0.873566 1.318291 1.353952 1.297685 1.375722 1.045464 1.299383 1.297932 1.338249 1.303258 1.405979 1.254208 1.275033 1.234597 1.240053 1.272826 1.224745 1.374097 1.271764 1.347830 1.273123 1.259328 1.245916 1.366444 1.229996 1.373248 1.288228 1.318403 1.381409 1.308604 1.369378 1.316638 1.389065 1.257330 1.380968 1.253795 1.365189 1.279442 1.381743 1.364660 1.175256 1.268057 1.281451 1.414214
años 1.162020 1.126345 1.032070 1.124724 1.075659 1.000000 1.187696 0.901921 1.030086 0.752485 1.111455 1.069017 1.071257 1.169410 0.707231 1.071333 1.071236 1.136183 1.060283 1.203249 1.004702 1.058261 0.995082 0.993803 1.049003 0.944020 1.151167 1.032665 1.078877 0.548914 0.899876 0.880834 1.144263 0.984456 1.177205 1.055141 1.095027 1.169170 1.026667 1.052465 1.104113 1.181153 1.033141 1.170177 0.995929 1.154811 1.066288 1.086806 1.126784 0.938737 0.988149 1.065862 1.211728
manguerazos 1.213126 1.175297 1.141024 1.152674 1.168261 1.031335 1.214198 1.095925 1.190335 0.947094 0.968256 1.116132 1.031059 1.206757 0.718449 1.116007 1.113333 0.847384 1.033834 1.205407 1.063069 1.085086 1.034695 1.046233 0.797573 0.996582 1.204905 1.086755 1.145720 1.123058 1.095781 1.056390 1.162613 1.016787 1.203937 1.095632 1.011312 1.179010 1.112361 1.199521 1.138941 1.111386 1.062163 1.212734 1.065672 1.186245 0.380599 1.213617 1.126653 0.972049 0.901229 1.080075 1.250461
así 1.102083 1.087988 0.965290 0.981872 0.763386 0.912871 1.115328 0.964107 0.759850 0.000000 1.015169 1.038281 1.002813 1.107223 0.635463 1.010807 1.008941 1.060304 1.015782 1.144600 0.952035 0.979307 0.925361 0.933308 0.976432 0.889975 1.105205 0.971529 1.041734 0.923105 0.903265 0.924924 1.083369 0.912010 1.092063 0.977506 1.035142 1.114281 0.964512 1.059610 1.030645 1.123759 0.951109 1.113735 0.941542 1.094109 0.985040 1.077518 1.093449 0.845317 0.966844 0.985044 1.142989
cosa 1.161510 1.125601 1.032032 1.124724 1.075659 1.000000 1.187696 1.043239 1.030086 0.752485 1.111431 1.068502 1.070909 1.169190 0.714819 1.028627 1.070882 1.136183 1.094751 1.203003 0.998544 1.042184 0.996138 0.994862 1.048811 0.943531 1.106859 1.032016 1.078376 0.906483 0.573537 0.973236 1.143745 0.984000 1.177205 1.054866 1.094661 1.168808 1.034915 1.100636 1.106650 1.180855 1.033008 1.122405 1.021388 1.154543 1.066288 1.116881 1.167175 0.938737 0.986784 1.065803 1.211460
todavía 1.381311 1.331835 1.318440 1.328534 1.342081 1.224745 1.382253 1.276807 1.361339 1.154701 1.178029 1.216311 1.118860 1.375722 0.929766 1.293444 1.289998 1.186230 1.242725 1.331193 1.248054 1.264013 1.218091 1.233634 0.765128 1.155412 1.374097 1.271764 1.287751 1.302922 1.279486 1.245916 1.296855 1.188672 1.373248 1.267362 1.041492 1.310180 1.273463 1.369378 1.316638 1.329009 1.253211 1.380968 1.253795 1.347741 0.380599 1.381743 1.222952 1.175256 1.098533 1.245116 1.414214
irse 1.381311 1.360289 1.318440 1.328534 1.247421 1.224745 1.382253 1.281694 0.443316 0.873566 1.318291 1.353952 1.297685 1.375722 1.045464 1.299383 1.297932 1.338249 1.303258 1.405979 1.254208 1.275033 1.234597 1.240053 1.272826 1.224745 1.374097 1.271764 1.347830 1.273123 1.259328 1.245916 1.366444 1.229996 1.373248 1.288228 1.318403 1.381409 1.308604 1.369378 1.316638 1.389065 1.257330 1.380968 1.253795 1.365189 1.279442 1.381743 1.364660 1.175256 1.268057 1.281451 1.414214
chico 1.208350 1.256444 1.228394 1.328534 1.342081 1.093554 0.298960 1.281694 1.361339 1.154701 1.318291 1.353952 1.139647 1.375722 0.995729 1.286929 1.281281 1.338249 1.303258 1.352376 1.254208 1.275033 1.234597 1.240053 1.272826 1.224745 1.374097 1.271764 1.347830 1.302922 1.279486 1.245916 1.366444 1.229996 1.373248 1.278498 1.318403 1.381409 1.308604 1.369378 1.316638 1.389065 1.257330 1.380968 1.253795 1.365189 1.279442 1.381743 1.364660 1.175256 1.268057 1.247459 1.414214
caminar 1.381311 1.360289 1.318440 1.328534 1.261633 1.224745 1.382253 1.281694 0.217273 0.803834 1.318291 1.353952 1.297685 1.375722 1.045605 1.299383 1.297932 1.338249 1.303258 1.405979 1.254208 1.275033 1.234597 1.240053 1.272826 1.224745 1.374097 1.271764 1.347830 1.277501 1.262280 1.245916 1.366444 1.229996 1.373248 1.288228 1.318403 1.381409 1.308604 1.369378 1.316638 1.389065 1.257330 1.380968 1.253795 1.365189 1.279442 1.381743 1.364660 1.175256 1.268057 1.281451 1.414214
daba 1.360612 1.360289 1.277070 1.328534 1.342081 1.224745 1.382253 1.277258 1.361339 1.154701 1.266878 1.310186 1.267842 1.317657 0.998508 1.299383 1.219750 1.338249 1.303258 1.324879 1.229025 1.236792 1.224586 1.205137 1.255956 1.202335 1.244744 0.417423 1.231413 1.282481 1.255195 1.148237 1.345479 1.174734 1.373248 1.284309 1.285853 1.287049 1.304417 1.344790 1.315266 1.389065 1.257330 1.325994 1.187844 1.341034 1.279442 1.274952 1.364660 1.157657 1.250522 1.239757 1.414214
andaba 1.112246 1.037960 1.024282 1.090737 1.096764 0.961615 1.155563 0.859788 1.130464 0.835301 1.055585 1.104889 0.993332 1.108497 0.582339 1.020905 0.966375 1.102549 0.941194 1.025882 0.927583 0.910428 0.944053 0.803819 1.010637 0.849601 1.044596 0.958667 1.069145 0.688974 0.952628 0.400057 1.075418 0.900577 1.104446 0.999387 1.065791 1.112662 1.029605 1.084432 0.962295 1.054690 0.980741 1.060362 0.561535 1.112474 1.030376 1.074847 1.134461 0.776587 0.886726 0.865732 1.160486
incluso 1.142336 1.175704 0.962148 1.105390 1.115971 1.015822 1.201049 1.020511 1.176920 0.911588 0.575356 1.168367 1.065843 1.193526 0.703931 1.073380 1.075752 1.120820 1.079026 1.228280 1.014098 1.002409 0.911462 1.008904 1.021192 1.006662 1.178217 1.038889 1.091019 1.096499 1.066945 1.000445 1.124208 0.970091 1.145780 1.015627 1.095250 1.172017 1.062524 1.166084 1.123774 1.167049 0.717048 1.182915 1.005250 1.181371 0.971339 1.172328 1.180760 0.864572 0.788815 1.052840 0.778773
lujo 1.360612 1.360289 1.277070 1.328534 1.342081 1.224745 1.382253 1.277258 1.361339 1.154701 1.266878 1.310186 1.267842 1.317657 0.998508 1.299383 1.219750 1.338249 1.303258 1.324879 1.229025 1.236792 1.224586 1.205137 1.255956 1.202335 1.244744 0.417423 1.231413 1.282481 1.255195 1.148237 1.345479 1.174734 1.373248 1.284309 1.285853 1.287049 1.304417 1.344790 1.315266 1.389065 1.257330 1.325994 1.187844 1.341034 1.279442 1.274952 1.364660 1.157657 1.250522 1.239757 1.414214
trolebús 1.335607 1.324490 1.274162 1.328534 1.342081 1.224745 1.382253 1.197840 1.361339 1.154701 1.265113 1.310533 1.236828 1.318120 0.941932 1.269026 1.158836 1.338249 1.262578 1.285888 1.198422 1.134881 1.193189 0.886012 1.256088 1.003581 1.171046 1.119675 1.211100 1.174902 1.194605 0.400057 1.320143 1.129698 1.373248 1.251438 1.286110 1.229271 1.270906 1.344984 1.265417 1.264377 1.239183 1.315085 1.009679 1.341225 1.279442 1.314845 1.364660 1.120048 1.177039 1.196949 1.389886
tranvías 1.335265 1.360289 1.254223 1.328534 1.304921 1.224745 1.382253 1.237597 1.361339 1.137035 0.349599 1.353952 1.276472 1.375722 0.965458 1.299383 1.253578 1.289892 1.253925 1.405979 1.254208 1.275033 1.224386 1.229560 1.188155 1.224745 1.374097 1.225245 1.230687 1.302922 1.279486 1.208649 1.319796 1.177513 1.327318 1.240737 1.318403 1.334624 1.259040 1.369378 1.316638 1.389065 1.210225 1.380968 1.218191 1.365189 1.098510 1.381743 1.364660 1.175256 1.087364 1.272049 1.293955
preguntarnos 1.360612 1.360289 1.277070 1.328534 1.342081 1.224745 1.382253 1.277258 1.361339 1.154701 1.266878 1.310186 1.267842 1.317657 0.998508 1.299383 1.219750 1.338249 1.303258 1.324879 1.229025 1.236792 1.224586 1.205137 1.255956 1.202335 1.244744 0.417423 1.231413 1.282481 1.255195 1.148237 1.345479 1.174734 1.373248 1.284309 1.285853 1.287049 1.304417 1.344790 1.315266 1.389065 1.257330 1.325994 1.187844 1.341034 1.279442 1.274952 1.364660 1.157657 1.250522 1.239757 1.414214
iba 1.010475 0.952183 0.906716 0.981312 0.988088 0.835446 1.052897 0.879144 1.025288 0.713907 0.913884 0.976022 0.884721 1.011103 0.370940 0.902467 0.700946 0.954359 0.863450 0.934765 0.791702 0.836917 0.799192 0.726118 0.868202 0.743448 0.969341 0.817195 0.911122 0.903459 0.749592 0.609673 0.952008 0.663604 0.989289 0.857585 0.926049 0.836384 0.791013 0.967980 0.891683 0.825263 0.836506 0.955875 0.640963 0.996885 0.885590 0.997573 1.016579 0.672616 0.800623 0.805967 1.052984
se 1.022358 0.985738 0.932131 0.994809 1.004912 0.851259 1.065488 0.894102 1.038213 0.734011 0.785770 0.959020 0.900596 1.015058 0.396899 0.943002 0.714552 0.997453 0.879566 0.971509 0.815345 0.862040 0.820813 0.738439 0.861557 0.739473 0.963972 0.685509 0.761088 0.905506 0.866422 0.653211 0.961540 0.666118 1.016681 0.913196 0.921954 0.800443 0.914924 0.991448 0.931686 0.987000 0.877776 1.005360 0.736855 0.998511 0.864130 1.003125 1.042564 0.733508 0.806796 0.867374 1.077002
queríamos 1.160296 1.141284 1.015196 1.085450 1.138406 1.000000 1.187696 1.035782 1.163291 0.890085 1.079782 1.093874 1.052289 1.147000 0.697528 1.050650 1.039302 1.136183 1.032935 1.147251 0.976565 1.020777 0.968148 0.977124 1.048371 0.956468 1.088350 0.558634 1.041611 1.022212 1.029943 0.920152 1.142509 0.963953 1.177205 1.037599 1.089874 1.133277 1.057859 1.100357 1.077298 1.158410 1.007257 1.134852 0.952020 1.153931 1.066288 0.735260 1.123861 0.884262 0.992921 0.996068 1.210798
todo 1.052719 1.033611 0.944075 1.004600 1.036942 0.897727 1.102967 0.933331 1.076642 0.792252 0.992408 1.048549 0.917790 1.054151 0.489914 0.963630 0.910432 1.047294 0.857580 0.997558 0.860981 0.896150 0.862156 0.848171 0.935523 0.841812 1.071285 0.905989 1.012279 0.961820 0.897168 0.740661 0.873124 0.744698 1.061415 0.921431 0.973339 1.059845 0.972902 1.032741 0.764235 1.044685 0.877220 0.761073 0.518246 1.044618 0.956297 1.038936 1.080838 0.532443 0.866575 0.564322 1.116495
podía 1.335265 1.360289 1.254223 1.328534 1.304921 1.224745 1.382253 1.237597 1.361339 1.137035 0.349599 1.353952 1.276472 1.375722 0.965458 1.299383 1.253578 1.289892 1.253925 1.405979 1.254208 1.275033 1.224386 1.229560 1.188155 1.224745 1.374097 1.225245 1.230687 1.302922 1.279486 1.208649 1.319796 1.177513 1.327318 1.240737 1.318403 1.334624 1.259040 1.369378 1.316638 1.389065 1.210225 1.380968 1.218191 1.365189 1.098510 1.381743 1.364660 1.175256 1.087364 1.272049 1.293955
si 1.360612 1.360289 1.277070 1.328534 1.342081 1.224745 1.382253 1.277258 1.361339 1.154701 1.266878 1.310186 1.267842 1.317657 0.998508 1.299383 1.219750 1.338249 1.303258 1.324879 1.229025 1.236792 1.224586 1.205137 1.255956 1.202335 1.244744 0.417423 1.231413 1.282481 1.255195 1.148237 1.345479 1.174734 1.373248 1.284309 1.285853 1.287049 1.304417 1.344790 1.315266 1.389065 1.257330 1.325994 1.187844 1.341034 1.279442 1.274952 1.364660 1.157657 1.250522 1.239757 1.414214
doctor 1.263441 1.360289 1.280739 1.328534 1.318251 1.224745 1.382253 1.244063 1.361339 1.143346 1.269132 1.316627 1.199677 1.358716 0.929383 1.277118 1.147188 1.338249 1.224689 1.347255 1.161345 1.256419 1.164770 1.177052 1.200189 1.153911 1.330964 1.247526 1.278851 1.264112 1.228178 1.191264 0.345514 0.816041 1.343826 1.192884 1.203968 1.315503 1.273212 1.348385 1.269124 1.365938 1.235695 1.223419 1.165151 1.272178 1.228125 1.357892 1.364660 1.107489 1.153842 1.143161 1.363884
uno 1.335265 1.360289 1.254223 1.328534 1.304921 1.224745 1.382253 1.237597 1.361339 1.137035 0.349599 1.353952 1.276472 1.375722 0.965458 1.299383 1.253578 1.289892 1.253925 1.405979 1.254208 1.275033 1.224386 1.229560 1.188155 1.224745 1.374097 1.225245 1.230687 1.302922 1.279486 1.208649 1.319796 1.177513 1.327318 1.240737 1.318403 1.334624 1.259040 1.369378 1.316638 1.389065 1.210225 1.380968 1.218191 1.365189 1.098510 1.381743 1.364660 1.175256 1.087364 1.272049 1.293955
posición 1.356239 1.324076 1.193255 1.260431 1.338131 1.224745 1.382253 1.229681 1.361339 1.117982 1.313258 1.293164 1.266812 1.375722 0.984180 1.231540 1.292000 1.338249 1.196377 1.368236 1.180309 1.245676 1.171451 1.206070 1.272826 1.175327 1.346586 1.119615 1.283090 1.200129 1.242447 1.169832 1.341049 1.214829 1.373248 1.225227 1.311742 1.381409 1.238430 1.268062 1.260531 1.323476 1.202574 1.346776 1.181757 1.365189 1.279442 0.343156 1.288691 1.104793 1.184975 1.201094 1.389606
olvera 1.263441 1.360289 1.280739 1.328534 1.318251 1.224745 1.382253 1.244063 1.361339 1.143346 1.269132 1.316627 1.199677 1.358716 0.929383 1.277118 1.147188 1.338249 1.224689 1.347255 1.161345 1.256419 1.164770 1.177052 1.200189 1.153911 1.330964 1.247526 1.278851 1.264112 1.228178 1.191264 0.345514 0.816041 1.343826 1.192884 1.203968 1.315503 1.273212 1.348385 1.269124 1.365938 1.235695 1.223419 1.165151 1.272178 1.228125 1.357892 1.364660 1.107489 1.153842 1.143161 1.363884
ir 1.335265 1.360289 1.254223 1.328534 1.304921 1.224745 1.382253 1.237597 1.361339 1.137035 0.349599 1.353952 1.276472 1.375722 0.965458 1.299383 1.253578 1.289892 1.253925 1.405979 1.254208 1.275033 1.224386 1.229560 1.188155 1.224745 1.374097 1.225245 1.230687 1.302922 1.279486 1.208649 1.319796 1.177513 1.327318 1.240737 1.318403 1.334624 1.259040 1.369378 1.316638 1.389065 1.210225 1.380968 1.218191 1.365189 1.098510 1.381743 1.364660 1.175256 1.087364 1.272049 1.293955
fija 1.356239 1.324076 1.193255 1.260431 1.338131 1.224745 1.382253 1.229681 1.361339 1.117982 1.313258 1.293164 1.266812 1.375722 0.984180 1.231540 1.292000 1.338249 1.196377 1.368236 1.180309 1.245676 1.171451 1.206070 1.272826 1.175327 1.346586 1.119615 1.283090 1.200129 1.242447 1.169832 1.341049 1.214829 1.373248 1.225227 1.311742 1.381409 1.238430 1.268062 1.260531 1.323476 1.202574 1.346776 1.181757 1.365189 1.279442 0.343156 1.288691 1.104793 1.184975 1.201094 1.389606
qué 1.259203 1.360289 1.279426 1.328534 1.317427 1.224745 1.382253 1.242753 1.361339 1.142955 1.267412 1.315328 1.196173 1.358129 0.933333 1.276348 1.196299 1.338249 1.258166 1.345196 1.158029 1.255776 1.162301 1.207175 1.197620 1.188923 1.329460 1.246687 1.276420 1.262760 1.233328 1.189345 0.353002 0.838578 1.342806 1.189479 1.199849 1.313184 1.271981 1.347660 1.267463 1.365138 1.234946 1.302271 1.189375 1.268867 1.226327 1.357067 1.364660 1.128911 1.149724 1.196478 1.362125
mosca 1.326807 1.360289 1.253755 1.328534 1.298120 1.224745 1.382253 1.229492 1.361339 1.133826 0.533510 1.353952 1.272617 1.375722 0.985038 1.299383 1.245426 1.280995 1.244838 1.405979 1.254208 1.275033 1.227081 1.227662 1.253213 1.224745 1.374097 1.216684 1.208397 1.302922 1.279486 1.201818 1.311224 1.167816 1.318882 1.231994 1.318403 1.326027 1.249911 1.369378 1.316638 1.389065 1.236092 1.380968 1.211671 1.365189 1.200346 1.381743 1.364660 1.175256 1.203315 1.270350 1.360744
cayera 1.357174 1.325432 1.198115 1.263014 1.338277 1.224745 1.382253 1.242566 1.361339 1.119361 1.313444 1.295462 1.267967 1.375722 0.992790 1.234114 1.292220 1.338249 1.263651 1.369649 1.183123 1.246774 1.179643 1.207343 1.272826 1.177191 1.347613 1.120099 1.285541 1.266903 1.243835 1.172732 1.341996 1.215393 1.373248 1.227613 1.311989 1.381409 1.241094 1.271950 1.262649 1.325958 1.204642 1.348056 1.184498 1.365189 1.279442 0.276114 1.364660 1.107477 1.188149 1.204159 1.390523
será 1.253967 1.360289 1.277808 1.328534 1.316411 1.224745 1.382253 1.241137 1.361339 1.142473 1.265293 1.313727 1.191847 1.357406 0.934951 1.275399 1.191967 1.338249 1.263065 1.342657 1.153933 1.254984 1.159255 1.205814 1.194450 1.187438 1.327606 1.245653 1.273420 1.261094 1.236100 1.198741 0.409819 0.818639 1.341549 1.185274 1.194761 1.310324 1.270464 1.346766 1.315375 1.364153 1.234024 1.353418 1.221624 1.264781 1.224110 1.356050 1.364660 1.175256 1.144634 1.256677 1.359957
hasta 1.071643 0.993869 0.998305 1.068511 1.085308 0.907960 1.109653 1.000847 1.109035 0.842643 1.034412 1.064967 0.926677 1.081598 0.515843 0.967097 0.635141 0.992469 0.911434 0.797944 0.865587 0.937534 0.919748 0.895429 0.901251 0.894172 1.095551 0.916898 0.997252 1.009524 0.946427 0.782270 1.024719 0.672903 1.068635 0.989713 0.981840 1.003954 0.994215 1.071753 0.978743 0.794993 0.915064 1.054584 0.736433 1.067388 0.941088 1.089621 1.085976 0.781401 0.901526 0.901184 1.132433
toces 1.357665 1.326145 1.241873 1.328534 1.342081 1.224745 1.382253 1.264361 1.361339 1.120085 1.316297 1.296669 1.268573 1.375722 0.990899 1.270426 1.292335 1.338249 1.202658 1.370392 1.225428 1.247351 1.207391 1.208012 1.272826 1.178170 1.348153 1.120265 1.286828 1.206160 1.247179 1.174255 1.342494 1.215690 1.373248 1.257614 1.318403 1.381409 1.249402 1.314554 1.266007 1.327262 1.243788 1.370571 1.199171 1.365189 1.279442 0.226710 1.293095 1.139810 1.198914 1.241685 1.391005
taller 1.106472 1.103323 1.094013 1.130439 1.130901 1.006424 1.193110 1.047302 1.168818 0.912010 1.060383 1.114367 1.030157 1.164844 0.649513 1.073402 0.677811 1.141841 1.011578 1.110426 0.921039 1.048514 0.993168 0.968136 1.001083 0.949710 1.144704 1.004668 1.050186 1.064455 1.013509 0.939991 0.737209 0.000000 1.127263 1.042014 1.061865 1.061469 1.061449 1.134385 1.096356 1.102450 1.025156 1.121647 0.936813 1.082807 1.038529 1.177238 1.172684 0.926097 0.959932 1.028523 1.198081
centro 1.066592 1.027331 0.983968 1.035490 1.077662 0.903413 1.106093 0.977493 1.103087 0.834799 1.047481 1.053562 0.823741 1.016886 0.532237 0.695644 0.957292 1.074461 1.013235 0.848466 0.809937 0.922940 0.910920 0.916483 0.744449 0.899545 1.055694 0.929595 1.022120 1.000714 0.943279 0.868149 1.024421 0.850444 1.117751 0.973531 0.952441 1.079529 1.030550 1.074037 1.024135 1.074526 0.946699 1.071011 0.859409 1.003893 0.932372 1.089584 1.107183 0.817742 0.934025 0.913615 1.158238
siempre 1.381311 1.360289 1.318440 1.328534 1.342081 1.224745 1.382253 1.270503 1.361339 1.154701 1.318291 1.272569 1.267708 1.375722 1.010289 1.299383 1.297932 1.338249 1.238556 1.405979 1.254208 1.275033 1.095921 1.240053 1.181324 1.183339 1.374097 1.265244 1.347830 1.238373 1.279486 1.245916 1.366444 1.229996 1.373248 1.278283 1.155014 1.381409 1.271069 1.369378 1.316638 1.324881 1.252934 1.380968 1.253795 1.365189 1.172743 1.326980 0.371082 1.175256 1.268057 1.268190 1.414214
avenida 1.361160 1.229769 1.318440 1.328534 1.342081 1.224745 1.382253 1.276160 1.361339 1.154701 1.268257 1.311356 1.297685 1.356336 0.954940 1.283871 0.321008 1.338249 1.123767 1.260928 1.144825 1.263077 1.219455 1.172642 1.244065 1.162045 1.351990 1.189834 1.234616 1.283023 1.217729 1.126576 1.220613 0.798846 1.300771 1.279551 1.286720 1.205994 1.265394 1.309163 1.278512 1.218822 1.245363 1.273570 1.089440 1.306048 1.279442 1.381743 1.364660 1.138760 1.225249 1.221510 1.414214
zócalo 1.284115 1.243904 1.236471 1.328534 1.342081 1.166992 1.327692 1.270195 1.361339 1.154701 1.318291 1.311058 1.127388 1.318820 0.901485 1.201081 1.145353 1.338249 1.206703 0.152394 1.132589 1.200417 1.221848 1.210162 1.152183 1.202779 1.351837 1.204919 1.248009 1.282885 1.255676 1.116824 1.303572 1.119654 1.300259 1.275829 1.247534 1.280596 1.298391 1.308739 1.227506 1.238885 1.246611 1.327094 1.046654 1.305632 1.220411 1.343836 1.364660 1.109046 1.195225 1.171595 1.414214
decía 1.381311 1.360289 1.318440 1.328534 1.342081 1.224745 1.382253 1.270503 1.361339 1.154701 1.318291 1.272569 1.267708 1.375722 1.010289 1.299383 1.297932 1.338249 1.238556 1.405979 1.254208 1.275033 1.095921 1.240053 1.181324 1.183339 1.374097 1.265244 1.347830 1.238373 1.279486 1.245916 1.366444 1.229996 1.373248 1.278283 1.155014 1.381409 1.271069 1.369378 1.316638 1.324881 1.252934 1.380968 1.253795 1.365189 1.172743 1.326980 0.371082 1.175256 1.268057 1.268190 1.414214
sonora 1.335152 1.256408 1.291596 1.301899 1.315720 1.195800 1.356673 1.248401 1.335359 1.123954 1.240267 1.284313 1.270403 1.330234 0.918183 1.262703 0.232320 1.311811 1.091918 1.232651 1.113669 1.235017 1.190364 1.142295 1.215546 1.131421 1.325800 1.159917 1.205767 1.255399 1.188538 1.094890 1.191384 0.751105 1.273467 1.251864 1.259162 1.176364 1.237349 1.282052 1.250767 1.189516 1.216895 1.245627 1.056584 1.278873 1.251762 1.356153 1.338744 1.107527 1.196265 1.192414 1.389222
cerquita 1.361438 1.293976 1.250473 1.328534 1.342081 1.224745 1.382253 1.270431 1.361339 1.154701 1.318291 1.311947 1.183145 1.294030 0.919129 1.209107 1.156955 1.338249 1.208749 0.152394 1.135200 1.178636 1.220873 1.205652 1.154769 1.203231 1.352295 1.178079 1.250124 1.283297 1.254101 1.088579 1.304885 1.122013 1.301788 1.277806 1.249020 1.282732 1.298600 1.310004 1.229389 1.242130 1.246831 1.303638 1.002048 1.306874 1.221643 1.344620 1.364660 1.098061 1.196755 1.160345 1.414214
caiga 1.381311 1.360289 1.318440 1.328534 1.342081 1.224745 1.382253 1.270503 1.361339 1.154701 1.318291 1.272569 1.267708 1.375722 1.010289 1.299383 1.297932 1.338249 1.238556 1.405979 1.254208 1.275033 1.095921 1.240053 1.181324 1.183339 1.374097 1.265244 1.347830 1.238373 1.279486 1.245916 1.366444 1.229996 1.373248 1.278283 1.155014 1.381409 1.271069 1.369378 1.316638 1.324881 1.252934 1.380968 1.253795 1.365189 1.172743 1.326980 0.371082 1.175256 1.268057 1.268190 1.414214
básicamente 1.326003 1.266372 1.265363 1.246914 1.337370 1.224745 1.382253 1.228855 1.361339 1.154701 1.312288 1.301416 1.260791 1.351862 0.938024 1.100936 1.166758 1.338249 1.137132 1.279034 0.505036 1.224665 1.156090 1.191626 1.215972 1.176015 1.313337 1.233425 1.296143 1.248271 1.219414 1.174679 1.310409 1.133286 1.147842 1.223105 1.271173 1.270106 1.277224 1.174859 1.200932 1.289655 1.188068 1.316848 1.157151 1.099213 1.279442 1.312302 1.364660 1.103430 1.101396 1.230994 1.384825
donde 1.356694 1.262296 1.274882 1.261689 1.338202 1.224745 1.382253 1.243591 1.361339 1.154701 1.313348 1.353952 1.201383 1.313547 0.985199 0.384283 1.282189 1.338249 1.303258 1.318659 1.020867 1.227882 1.176792 1.206536 1.162885 1.207161 1.268027 1.256682 1.347830 1.278610 1.197041 1.219438 1.341510 1.215104 1.373248 1.229426 1.263486 1.381409 1.301741 1.328880 1.314391 1.362371 1.206243 1.347399 1.236238 1.271254 1.279442 1.324810 1.364660 1.144053 1.216612 1.229061 1.390052
desesperaba 1.381311 1.360289 1.318440 1.328534 1.342081 1.224745 1.382253 1.270503 1.361339 1.154701 1.318291 1.272569 1.267708 1.375722 1.010289 1.299383 1.297932 1.338249 1.238556 1.405979 1.254208 1.275033 1.095921 1.240053 1.181324 1.183339 1.374097 1.265244 1.347830 1.238373 1.279486 1.245916 1.366444 1.229996 1.373248 1.278283 1.155014 1.381409 1.271069 1.369378 1.316638 1.324881 1.252934 1.380968 1.253795 1.365189 1.172743 1.326980 0.371082 1.175256 1.268057 1.268190 1.414214
idea 1.333189 1.278742 1.272260 1.257625 1.337972 1.224745 1.382253 1.235725 1.361339 1.154701 1.313055 1.308238 1.265559 1.354931 0.930926 1.128207 1.184308 1.338249 1.159659 1.295927 0.454475 1.213034 1.166404 1.197916 1.176670 1.182346 1.321247 1.238384 1.302854 1.255378 1.227244 1.184009 1.239019 1.097739 1.179010 1.231608 1.277298 1.284847 1.281271 1.201438 1.216311 1.302764 1.197130 1.325204 1.169929 1.029884 1.279442 1.321368 1.364660 1.112854 1.052249 1.237548 1.388610
vivíamos 1.356694 1.262296 1.274882 1.261689 1.338202 1.224745 1.382253 1.243591 1.361339 1.154701 1.313348 1.353952 1.201383 1.313547 0.985199 0.384283 1.282189 1.338249 1.303258 1.318659 1.020867 1.227882 1.176792 1.206536 1.162885 1.207161 1.268027 1.256682 1.347830 1.278610 1.197041 1.219438 1.341510 1.215104 1.373248 1.229426 1.263486 1.381409 1.301741 1.328880 1.314391 1.362371 1.206243 1.347399 1.236238 1.271254 1.279442 1.324810 1.364660 1.144053 1.216612 1.229061 1.390052
estar 1.359222 1.360289 1.274268 1.328534 1.342081 1.224745 1.382253 1.274571 1.361339 1.154701 1.318291 1.307219 1.194152 0.381498 0.996261 1.240333 1.276228 1.338249 1.303258 1.319301 1.219720 1.234203 1.229327 1.223894 1.208174 1.200828 1.349862 1.202794 1.301851 1.281108 1.253561 1.182078 1.344071 1.204645 1.373248 1.278416 1.230012 1.346375 1.304138 1.343136 1.315175 1.389065 1.257330 1.322252 1.183322 1.339410 1.279442 1.381743 1.364660 1.156476 1.249346 1.225014 1.414214
conociendo 1.262995 1.290393 1.281705 1.328534 1.317023 1.224745 1.382253 1.243075 1.361339 1.142764 1.268538 1.353952 1.283353 1.375722 0.969212 1.290905 1.220198 1.338249 1.180679 1.333122 1.062663 1.259288 1.227140 1.233795 1.245853 1.224745 1.374097 1.271764 1.347830 1.302922 1.279486 1.226965 1.335022 1.175015 0.288235 1.256253 1.318403 1.329343 1.261532 1.289617 1.234258 1.340326 1.240173 1.380968 1.177061 1.286860 1.279442 1.381743 1.364660 1.150779 1.202912 1.275090 1.383770
nosotros 1.356694 1.262296 1.274882 1.261689 1.338202 1.224745 1.382253 1.243591 1.361339 1.154701 1.313348 1.353952 1.201383 1.313547 0.985199 0.384283 1.282189 1.338249 1.303258 1.318659 1.020867 1.227882 1.176792 1.206536 1.162885 1.207161 1.268027 1.256682 1.347830 1.278610 1.197041 1.219438 1.341510 1.215104 1.373248 1.229426 1.263486 1.381409 1.301741 1.328880 1.314391 1.362371 1.206243 1.347399 1.236238 1.271254 1.279442 1.324810 1.364660 1.144053 1.216612 1.229061 1.390052
esperando 1.359222 1.360289 1.274268 1.328534 1.342081 1.224745 1.382253 1.274571 1.361339 1.154701 1.318291 1.307219 1.194152 0.381498 0.996261 1.240333 1.276228 1.338249 1.303258 1.319301 1.219720 1.234203 1.229327 1.223894 1.208174 1.200828 1.349862 1.202794 1.301851 1.281108 1.253561 1.182078 1.344071 1.204645 1.373248 1.278416 1.230012 1.346375 1.304138 1.343136 1.315175 1.389065 1.257330 1.322252 1.183322 1.339410 1.279442 1.381743 1.364660 1.156476 1.249346 1.225014 1.414214
paseando 1.270932 1.295000 1.284098 1.328534 1.318648 1.224745 1.382253 1.245594 1.361339 1.143535 1.271794 1.353952 1.284279 1.375722 0.969902 1.291452 1.225343 1.338249 1.188939 1.337924 1.076002 1.260306 1.227621 1.234199 1.247604 1.224745 1.374097 1.271764 1.347830 1.302922 1.279486 1.228192 1.337064 1.178626 0.381179 1.258333 1.318403 1.332751 1.264610 1.294892 1.239718 1.343513 1.241283 1.380968 1.182144 1.292038 1.279442 1.381743 1.364660 1.152368 1.207206 1.275499 1.385747
al 1.058748 1.000326 0.969766 0.998148 1.035332 0.879347 1.088060 0.918540 1.061365 0.756209 0.997619 1.038896 0.919713 1.043707 0.513448 0.678296 0.947362 1.031582 0.973465 1.057127 0.809523 0.729813 0.809055 0.762565 0.904722 0.798985 0.771233 0.865118 1.025340 0.930786 0.669224 0.758444 1.039226 0.855737 1.076598 0.928480 0.971360 1.062263 0.979734 1.051874 0.987323 1.045906 0.842836 1.029579 0.855609 1.030423 0.954055 1.042393 1.065621 0.760442 0.845684 0.912275 1.048282
viniera 1.381311 1.360289 1.277539 1.328534 1.342081 1.224745 1.382253 1.279485 1.361339 1.154701 1.318291 1.353952 1.202001 0.198719 1.017098 1.244732 1.297932 1.338249 1.303258 1.349026 1.247306 1.242232 1.232779 1.232610 1.230269 1.224745 1.374097 1.231811 1.347830 1.302922 1.276472 1.204382 1.366444 1.229996 1.373248 1.279134 1.270108 1.381409 1.308604 1.369378 1.316638 1.389065 1.257330 1.345730 1.192401 1.365189 1.279442 1.381743 1.364660 1.157855 1.268057 1.229216 1.414214
casi 1.270932 1.295000 1.284098 1.328534 1.318648 1.224745 1.382253 1.245594 1.361339 1.143535 1.271794 1.353952 1.284279 1.375722 0.969902 1.291452 1.225343 1.338249 1.188939 1.337924 1.076002 1.260306 1.227621 1.234199 1.247604 1.224745 1.374097 1.271764 1.347830 1.302922 1.279486 1.228192 1.337064 1.178626 0.381179 1.258333 1.318403 1.332751 1.264610 1.294892 1.239718 1.343513 1.241283 1.380968 1.182144 1.292038 1.279442 1.381743 1.364660 1.152368 1.207206 1.275499 1.385747
tengo 1.111141 1.026041 1.035288 1.028732 1.096956 0.953459 1.148785 0.989108 1.123534 0.861637 1.066901 1.055503 0.978636 1.100667 0.589844 0.724496 0.967538 1.095443 0.973330 1.078009 0.477872 0.876878 0.908341 0.933048 0.891237 0.905920 1.067727 0.983887 1.072602 1.014839 0.959194 0.934357 1.032795 0.863445 1.034576 0.984982 1.001024 1.088157 1.041174 1.027446 1.012781 1.104299 0.948283 1.104933 0.937576 0.737220 1.006526 1.102381 1.127556 0.843775 0.863142 0.986179 1.167806
siguiente 1.360551 1.360289 1.318440 1.328534 1.342081 1.224745 1.382253 1.274997 1.361339 1.154701 1.318291 1.310056 1.232146 0.246654 1.012235 1.243936 1.277534 1.338249 1.303258 1.383400 1.221805 1.270085 1.231490 1.232461 1.212130 1.202269 1.351321 1.248339 1.304641 1.282421 1.258231 1.228731 1.345417 1.206173 1.373248 1.282950 1.235466 1.348491 1.304405 1.344717 1.315262 1.389065 1.257330 1.362085 1.250130 1.340963 1.279442 1.381743 1.364660 1.175256 1.250470 1.270642 1.414214
conocí 1.262995 1.290393 1.281705 1.328534 1.317023 1.224745 1.382253 1.243075 1.361339 1.142764 1.268538 1.353952 1.283353 1.375722 0.969212 1.290905 1.220198 1.338249 1.180679 1.333122 1.062663 1.259288 1.227140 1.233795 1.245853 1.224745 1.374097 1.271764 1.347830 1.302922 1.279486 1.226965 1.335022 1.175015 0.288235 1.256253 1.318403 1.329343 1.261532 1.289617 1.234258 1.340326 1.240173 1.380968 1.177061 1.286860 1.279442 1.381743 1.364660 1.150779 1.202912 1.275090 1.383770
esa 1.204140 1.136307 1.111313 1.155191 1.170745 1.034149 1.216588 1.097794 1.192773 0.950156 1.137665 1.126194 1.081487 1.176958 0.739828 1.065630 1.080010 1.166351 1.070991 1.157808 0.876635 0.484378 0.980319 0.972113 1.039940 0.968667 1.194816 1.050654 1.142277 1.114197 1.084715 0.948831 1.146984 0.992126 1.165644 1.103610 1.091955 1.184214 1.126381 1.168037 1.090666 1.190813 1.010583 1.184658 0.984193 0.685321 1.075417 1.194380 1.196562 0.914936 0.999430 1.055297 1.186372
manguerazo 1.359222 1.360289 1.274268 1.328534 1.342081 1.224745 1.382253 1.274571 1.361339 1.154701 1.318291 1.307219 1.194152 0.381498 0.996261 1.240333 1.276228 1.338249 1.303258 1.319301 1.219720 1.234203 1.229327 1.223894 1.208174 1.200828 1.349862 1.202794 1.301851 1.281108 1.253561 1.182078 1.344071 1.204645 1.373248 1.278416 1.230012 1.346375 1.304138 1.343136 1.315175 1.389065 1.257330 1.322252 1.183322 1.339410 1.279442 1.381743 1.364660 1.156476 1.249346 1.225014 1.414214
inquieto 1.089310 1.147022 1.074482 1.200081 1.199553 0.992341 1.175565 1.116594 1.236300 0.996551 1.155507 1.150233 0.355626 1.160675 0.718709 1.061769 1.149899 1.210827 1.172038 1.144464 1.071098 1.115749 1.059898 1.061999 0.988556 1.022383 1.220090 1.108936 1.166084 1.144116 1.115116 1.049571 1.127573 1.020768 1.230359 0.988770 0.981119 1.193128 1.157234 1.245146 1.186898 1.236946 1.099853 1.226267 1.050023 1.230595 0.994865 1.227941 1.198357 0.993344 1.055247 0.981496 1.248379
imagen 1.204140 1.136307 1.111313 1.155191 1.170745 1.034149 1.216588 1.097794 1.192773 0.950156 1.137665 1.126194 1.081487 1.176958 0.739828 1.065630 1.080010 1.166351 1.070991 1.157808 0.876635 0.484378 0.982985 0.972113 1.039940 0.968667 1.194816 1.050654 1.142277 1.114197 1.084715 0.948831 1.146984 0.992126 1.165644 1.103610 1.091955 1.184214 1.126381 1.168037 1.090666 1.190813 1.010583 1.184658 0.984193 0.685321 1.075417 1.194380 1.196562 0.914936 0.999430 1.055297 1.186372
pus 1.225353 1.230169 1.019883 1.122845 1.192651 1.078393 1.254414 1.089425 1.231331 0.991581 1.084756 1.223159 1.138270 1.247213 0.826970 1.111152 1.160844 1.205754 1.161512 1.280510 1.051159 1.012432 0.904718 1.074319 1.132703 1.069768 1.232571 1.125401 1.216378 1.154706 1.125078 1.086204 1.208518 1.066909 1.228340 1.088971 1.015080 1.253483 1.147658 1.196927 1.143439 1.187449 0.337198 1.223694 1.071534 1.235586 1.140132 1.209740 1.235001 0.785930 0.932404 1.044392 0.718779
salir 1.135528 1.163342 1.049923 1.109015 1.149403 1.012183 1.196600 1.047647 1.193491 0.941302 1.101188 1.162437 0.779812 1.172099 0.717231 1.041139 1.114500 1.167085 1.096297 1.196195 0.999857 1.076824 0.957136 1.020302 1.033334 1.002890 1.178773 1.066745 1.164243 1.099623 1.068110 1.008620 1.083831 0.999120 1.183398 0.337064 1.045440 1.200118 1.028774 1.174439 1.140650 1.196210 1.022086 1.174671 1.011071 1.191024 1.060292 1.166407 1.197278 0.945722 1.008663 1.023904 1.203946
viajar 1.381311 1.331130 1.263692 1.328534 1.342081 1.224745 1.382253 1.281694 1.361339 1.154701 1.304470 1.353952 1.273561 1.345353 1.008509 1.295799 1.293145 1.338249 1.270139 1.328040 1.234081 0.415168 1.107764 1.132025 1.272826 1.178069 1.374097 1.236228 1.331998 1.302922 1.277017 1.111341 1.366444 1.229996 1.373248 1.285054 1.299743 1.381409 1.308604 1.369378 1.276114 1.358768 1.111069 1.352165 1.158988 1.178964 1.279442 1.350494 1.364660 1.083382 1.199904 1.217269 1.245331
defendía 1.381311 1.360289 1.233364 1.255972 1.337879 1.224745 1.382253 1.246414 1.361339 1.154701 1.288657 1.353952 1.297685 1.375722 1.022866 1.260810 1.297932 1.338249 1.293617 1.405979 1.209183 1.183263 1.094765 1.233193 1.272826 1.224745 1.374097 1.268043 1.347830 1.302922 1.276613 1.245916 1.366444 1.229996 1.373248 1.256565 1.047444 1.381409 1.301168 1.325458 1.248028 1.326861 0.519090 1.356509 1.221331 1.365189 1.279442 1.350517 1.364660 0.886827 1.173117 1.146194 1.069565
sin 1.276549 1.281625 1.230567 1.328534 1.342081 1.165249 1.326052 1.269628 1.361339 1.154701 1.316165 1.292809 0.467959 1.272175 0.916193 1.203107 1.281755 1.338249 1.303258 1.272798 1.209594 1.229606 1.207466 1.202497 1.115251 1.175039 1.346427 1.225812 1.310735 1.278018 1.250525 1.175408 1.297147 1.188844 1.373248 1.071323 1.179533 1.337492 1.308604 1.369378 1.316638 1.361721 1.245532 1.333610 1.186419 1.346783 1.175248 1.353541 1.364660 1.157493 1.181712 1.169705 1.389464
tranvía 1.381311 1.332137 1.265601 1.328534 1.342081 1.224745 1.382253 1.281694 1.361339 1.154701 1.304944 1.353952 1.274393 1.346402 1.006038 1.237628 1.293309 1.338249 1.271284 1.330778 1.227325 0.409391 1.109457 1.128721 1.272826 1.179694 1.313005 1.231984 1.332542 1.302922 1.234894 1.116206 1.366444 1.229996 1.373248 1.285163 1.300385 1.381409 1.308604 1.369378 1.277520 1.359814 1.116381 1.353159 1.162354 1.185808 1.279442 1.351574 1.364660 1.086649 1.202296 1.219517 1.251476
permiso 1.276549 1.281625 1.230567 1.328534 1.342081 1.165249 1.326052 1.269628 1.361339 1.154701 1.316165 1.292809 0.467959 1.272175 0.916193 1.203107 1.281755 1.338249 1.303258 1.272798 1.209594 1.229606 1.207466 1.202497 1.115251 1.175039 1.346427 1.225812 1.310735 1.278018 1.250525 1.175408 1.297147 1.188844 1.373248 1.071323 1.179533 1.337492 1.308604 1.369378 1.316638 1.361721 1.245532 1.333610 1.186419 1.346783 1.175248 1.353541 1.364660 1.157493 1.181712 1.169705 1.389464
las 1.135451 1.062836 0.988499 1.013031 1.084068 0.938737 1.136596 0.981695 1.111068 0.845317 1.044755 1.102005 1.001011 1.113303 0.617070 0.997169 0.989712 1.082653 0.891373 1.092994 0.908843 0.917123 0.874680 0.927039 0.996264 0.920728 1.126664 0.975355 1.075020 1.038669 0.995679 0.876785 1.069744 0.926097 1.100878 0.992876 0.948719 1.127517 1.032046 1.040325 0.697972 1.075177 0.708347 0.988561 0.754138 1.103697 1.009058 1.072807 1.115135 0.000000 0.910558 0.656245 1.050677
ya 1.091019 1.079470 0.897451 0.998475 1.055098 0.916586 1.118371 0.950436 1.092417 0.815218 0.961204 1.083198 0.978328 1.098246 0.595878 0.943157 1.010330 1.063504 0.994984 1.117284 0.893013 0.641416 0.643921 0.867977 0.979906 0.885865 1.067912 0.955662 1.069168 1.004712 0.952275 0.869516 1.059675 0.906520 1.094863 0.937831 0.944600 1.099152 1.006706 1.071005 1.004443 1.066074 0.502722 1.081583 0.886891 1.043624 0.988484 1.067098 1.075712 0.670200 0.798434 0.908586 0.734363
eso 1.209233 1.189451 1.134638 1.150268 1.188664 1.056014 1.235228 1.100028 1.211780 0.973909 1.153063 0.998368 0.973628 1.158349 0.733577 1.083581 1.109029 1.185781 1.111284 1.201834 1.032492 1.067811 0.958080 1.058973 0.945520 0.951055 1.198687 1.080034 1.116781 1.120726 1.091911 1.059218 1.113183 1.013315 1.225144 1.067052 0.263434 1.162851 1.117960 1.175881 1.136351 1.176907 0.797247 1.202670 1.073730 1.173607 0.932697 1.224101 1.070607 0.844068 1.019802 1.039650 1.163934
manos 1.381311 1.360289 1.233364 1.255972 1.337879 1.224745 1.382253 1.246414 1.361339 1.154701 1.288657 1.353952 1.297685 1.375722 1.022866 1.260810 1.297932 1.338249 1.293617 1.405979 1.209183 1.183263 1.094765 1.233193 1.272826 1.224745 1.374097 1.268043 1.347830 1.302922 1.276613 1.245916 1.366444 1.229996 1.373248 1.256565 1.047444 1.381409 1.301168 1.325458 1.248028 1.326861 0.519090 1.356509 1.221331 1.365189 1.279442 1.350517 1.364660 0.886827 1.173117 1.146194 1.069565
sea 1.353679 1.301066 1.235681 1.299780 1.313623 1.193493 1.354639 1.251864 1.333293 1.121498 1.277658 1.325750 1.242404 1.315542 0.966213 1.201352 1.263363 1.309708 1.238471 1.295550 1.205078 0.354401 1.088020 1.089419 1.242784 1.143321 1.278628 1.197501 1.302582 1.273590 1.200065 1.070099 1.338505 1.198881 1.345450 1.255157 1.273697 1.353778 1.279403 1.341500 1.244237 1.329247 1.103785 1.322575 1.121293 1.244133 1.249558 1.320752 1.336684 1.054348 1.174957 1.182748 1.246537
motivaba 1.349174 1.333154 1.318440 1.328534 1.342081 1.224745 1.382253 1.270008 1.361339 1.154701 1.318291 1.087614 1.085490 1.285916 0.932142 1.243105 1.258591 1.338249 1.263383 1.328283 1.202381 1.256821 1.160838 1.224682 1.062415 1.093923 1.338824 1.235468 1.245320 1.271180 1.246569 1.219323 1.231683 1.169232 1.373248 1.224280 0.263434 1.289081 1.268446 1.331171 1.314516 1.331825 1.141069 1.351749 1.248140 1.310539 1.042410 1.381743 1.176990 1.107465 1.202410 1.237716 1.414214
quedaban 1.381311 1.276125 1.318440 1.328534 1.342081 1.224745 1.382253 1.280592 1.361339 1.154701 1.318291 1.353952 1.297685 1.375722 0.991167 1.289222 1.257286 1.338249 1.028843 1.318245 1.178832 1.224169 1.227556 1.225069 1.261749 1.224745 1.374097 1.266531 1.318363 1.302922 1.275122 1.156160 1.324445 1.215386 1.307456 1.288228 1.304758 1.360134 1.303102 1.336994 0.377618 1.311626 1.197280 1.329659 1.097996 1.333378 1.279442 1.323294 1.364660 0.839174 1.199951 1.077987 1.414214
chapultepec 1.130732 1.107141 1.041538 1.094835 1.111234 0.966261 1.159433 0.976759 1.134419 0.875782 1.053892 1.066171 1.010615 1.116306 0.637605 1.011905 0.999512 1.106604 1.019391 1.109290 0.956686 0.639997 0.897683 0.445636 1.019330 0.707160 0.976895 0.936749 1.056048 1.001206 0.982753 0.564339 1.102418 0.924820 1.148683 1.023793 1.061662 1.085504 1.068800 1.133949 1.043034 1.119766 0.940139 1.083897 0.866828 1.060509 1.034713 1.109412 1.138402 0.829155 0.937974 0.950442 1.116920
dejaba 1.315890 1.352278 1.227379 1.255464 1.303419 1.215842 1.374370 1.205799 1.353335 1.132510 1.251957 1.345904 1.120265 1.367802 0.984648 1.230801 1.289535 1.330106 1.274615 1.398230 1.175083 1.266483 1.146489 1.206891 1.264261 1.198752 1.339957 1.255104 1.339745 1.270949 1.243857 1.204878 1.268901 1.186413 1.332350 0.288970 1.276367 1.373521 1.156095 1.322126 1.306178 1.355322 1.185548 1.340508 1.202076 1.357208 1.270922 1.318631 1.356676 1.135633 1.200442 1.225729 1.350088
marcas 1.381311 1.288337 1.318440 1.328534 1.342081 1.224745 1.382253 1.278289 1.361339 1.154701 1.318291 1.353952 1.297685 1.375722 0.996584 1.290661 1.263102 1.338249 1.049450 1.330978 1.189760 1.231475 1.228552 1.227195 1.263318 1.224745 1.374097 1.267271 1.322561 1.302922 1.275739 1.169246 1.330453 1.217459 1.316941 1.288228 1.306692 1.363157 1.291545 1.266754 0.344590 1.322830 1.205937 1.337020 1.121298 1.337913 1.279442 1.331699 1.364660 0.834226 1.209795 1.108968 1.414214
mí 1.360890 1.360289 1.318440 1.328534 1.342081 1.224745 1.382253 1.271733 1.361339 1.154701 1.318291 1.310780 1.168984 1.292880 0.962920 1.156916 1.277868 1.338249 1.303258 1.294844 1.159766 1.253526 1.226398 1.232584 0.441227 1.202637 1.351694 1.248723 1.305354 1.282756 1.258579 1.229012 1.273157 1.163295 1.373248 1.265386 1.180503 1.349032 1.268112 1.345121 1.315284 1.327110 1.253084 1.362394 1.250189 1.257233 1.061431 1.381743 1.297098 1.175256 1.250758 1.270818 1.414214
nos 1.144964 1.173199 0.999021 1.102332 1.117620 1.012922 1.198596 1.019908 1.174417 0.884584 1.056462 1.126668 1.000993 1.191058 0.718680 1.070267 1.066091 1.147572 1.084475 1.225882 1.010754 1.073182 0.960040 1.012450 1.026136 0.982535 1.175560 1.061694 1.130008 1.085420 1.035560 0.986698 1.093276 0.966399 1.148503 0.418029 1.055275 1.162374 0.668873 1.125290 1.119038 1.113694 1.003285 1.180231 0.978033 1.178877 1.046286 1.133567 1.134113 0.935694 1.027226 1.050910 1.184179
lados 1.381311 1.288337 1.318440 1.328534 1.342081 1.224745 1.382253 1.278289 1.361339 1.154701 1.318291 1.353952 1.297685 1.375722 0.996584 1.290661 1.263102 1.338249 1.049450 1.330978 1.189760 1.231475 1.228552 1.227195 1.263318 1.224745 1.374097 1.267271 1.322561 1.302922 1.275739 1.169246 1.330453 1.217459 1.316941 1.288228 1.306692 1.363157 1.291545 1.266754 0.344590 1.322830 1.205937 1.337020 1.121298 1.337913 1.279442 1.331699 1.364660 0.834226 1.209795 1.108968 1.414214
es 1.057160 1.028732 1.022051 1.046534 1.056378 0.911170 1.113936 0.966883 1.087877 0.810675 1.018365 1.004633 0.944780 1.081105 0.493027 0.905815 0.877249 1.058840 0.900317 1.022983 0.558925 0.863981 0.890216 0.895294 0.723258 0.853551 1.068317 0.941542 1.006467 0.980830 0.945348 0.893849 0.817973 0.709612 0.979146 0.957911 0.932176 1.022816 0.984186 1.010416 0.955955 1.061734 0.942494 1.047178 0.878628 0.708793 0.884023 1.106115 1.070893 0.801228 0.830071 0.943654 1.138461
ninguno 1.332109 1.360289 1.247798 1.273119 1.315932 1.224745 1.382253 1.224168 1.361339 1.143805 1.268671 1.353952 1.154371 1.375722 0.997992 1.247965 1.297932 1.338249 1.267482 1.405979 1.194123 1.275033 1.144759 1.219206 1.272826 1.210121 1.351643 1.264835 1.347830 1.282711 1.256288 1.218307 1.261602 1.200319 1.345020 0.255874 1.264517 1.381409 1.186107 1.335742 1.314767 1.366874 1.203462 1.353074 1.217026 1.365189 1.279442 1.334506 1.364660 1.149333 1.217661 1.241096 1.365941
pero 1.381311 1.288337 1.318440 1.328534 1.342081 1.224745 1.382253 1.278289 1.361339 1.154701 1.318291 1.353952 1.297685 1.375722 0.996584 1.290661 1.263102 1.338249 1.049450 1.330978 1.189760 1.231475 1.228552 1.227195 1.263318 1.224745 1.374097 1.267271 1.322561 1.302922 1.275739 1.169246 1.330453 1.217459 1.316941 1.288228 1.306692 1.363157 1.291545 1.266754 0.344590 1.322830 1.205937 1.337020 1.121298 1.337913 1.279442 1.331699 1.364660 0.834226 1.209795 1.108968 1.414214
bien 1.213623 1.169716 1.153478 1.165003 1.180428 1.045097 1.225908 1.102570 1.202278 0.962061 1.040227 1.103676 0.967733 1.173369 0.690441 1.047895 1.094902 1.104192 1.075369 1.135786 0.973382 1.081867 1.042153 1.053884 0.238972 0.997760 1.204378 1.086844 1.134095 1.124434 1.096986 1.056843 1.122453 0.982331 1.175611 1.095664 0.939635 1.159179 1.098685 1.177943 1.129940 1.157522 1.077349 1.214248 1.063616 1.118337 0.551859 1.225333 1.100015 0.980128 0.945626 1.087141 1.261835
hacer 1.349106 1.330910 1.318440 1.328534 1.342081 1.224745 1.382253 1.270896 1.361339 1.154701 1.271326 1.285510 1.237685 1.344744 0.960471 1.295772 1.125485 1.338249 1.252415 1.295657 1.134356 1.260645 1.124917 1.105765 1.212452 1.126207 1.338749 1.179201 1.174743 1.271112 1.214795 1.137816 1.293996 1.094710 1.305250 1.276217 1.230729 0.322899 1.265299 1.296646 1.279946 1.315230 1.251604 1.351687 1.188020 1.293760 1.224433 1.381743 1.364660 1.164873 1.216409 1.268135 1.414214
valía 1.363005 1.260716 1.299248 1.309491 1.323232 1.204061 1.363959 1.258119 1.342761 1.132738 1.299097 1.335271 1.278181 1.357340 0.967432 1.270109 1.239253 1.319346 1.008888 1.303663 1.161301 1.206125 1.208399 1.205161 1.242249 1.204061 1.355694 1.246808 1.300688 1.283498 1.255491 1.138991 1.307514 1.195291 1.291536 1.268579 1.293000 1.342631 1.270101 1.235231 0.266308 1.296391 1.207017 1.313295 1.091947 1.316044 1.259656 1.307216 1.346128 0.768882 1.182408 1.109549 1.396339
curioso 1.215099 1.170910 1.155685 1.167189 1.182585 1.047533 1.227986 1.104530 1.204396 0.964707 1.042675 1.104577 0.965934 1.172997 0.695528 1.045685 1.095481 1.106497 1.075979 1.133366 1.002118 1.093264 1.044249 1.055972 0.278402 0.999586 1.205809 1.088466 1.135000 1.126073 1.098655 1.058532 1.164651 1.008746 1.175523 1.097270 0.937392 1.159591 1.099525 1.178233 1.130997 1.157046 1.079507 1.215779 1.065155 1.165457 0.543931 1.227411 1.100124 0.982365 0.946776 1.089146 1.263854
escaparme 1.349106 1.330910 1.318440 1.328534 1.342081 1.224745 1.382253 1.270896 1.361339 1.154701 1.271326 1.285510 1.237685 1.344744 0.960471 1.295772 1.125485 1.338249 1.252415 1.295657 1.134356 1.260645 1.124917 1.105765 1.212452 1.126207 1.338749 1.179201 1.174743 1.271112 1.214795 1.137816 1.293996 1.094710 1.305250 1.276217 1.230729 0.322899 1.265299 1.296646 1.279946 1.315230 1.251604 1.351687 1.188020 1.293760 1.224433 1.381743 1.364660 1.164873 1.216409 1.268135 1.414214
dios 1.350492 1.360289 1.281944 1.158754 0.426344 1.224745 1.382253 1.252185 1.361339 0.886938 1.268864 1.353952 1.283446 1.375722 1.032675 1.299383 1.297932 1.338249 1.303258 1.405979 1.254208 1.275033 1.232979 1.240053 1.272826 1.224745 1.374097 1.271764 1.347830 1.302922 1.279486 1.239929 1.335227 1.211366 1.342508 1.256461 1.318403 1.381409 1.275457 1.369378 1.316638 1.389065 1.245260 1.380968 1.229945 1.365189 1.279442 1.381743 1.364660 1.175256 1.259951 1.275131 1.383968
porque 1.041899 1.006471 0.971057 0.997135 1.008552 0.853976 1.067660 0.915063 1.040442 0.746420 0.925534 0.924168 0.826813 1.022106 0.408488 0.902911 0.880913 0.983127 0.894130 1.002247 0.811716 0.903416 0.801908 0.856004 0.596333 0.790661 1.038946 0.903206 0.976167 0.931797 0.896904 0.830942 0.971186 0.779973 1.015950 0.868545 0.688704 0.991662 0.794680 0.994980 0.951362 0.873819 0.835381 1.053445 0.842072 0.990491 0.667847 1.042002 0.794971 0.741067 0.810877 0.900283 1.079943
cuando 1.349106 1.330910 1.318440 1.328534 1.342081 1.224745 1.382253 1.270896 1.361339 1.154701 1.271326 1.285510 1.237685 1.344744 0.960471 1.295772 1.125485 1.338249 1.252415 1.295657 1.134356 1.260645 1.124917 1.105765 1.212452 1.126207 1.338749 1.179201 1.174743 1.271112 1.214795 1.137816 1.293996 1.094710 1.305250 1.276217 1.230729 0.322899 1.265299 1.296646 1.279946 1.315230 1.251604 1.351687 1.188020 1.293760 1.224433 1.381743 1.364660 1.164873 1.216409 1.268135 1.414214
mío 1.351930 1.360289 1.283652 1.167137 0.337639 1.224745 1.382253 1.253563 1.249479 0.867042 1.271188 1.353952 1.284107 1.375722 1.032739 1.299383 1.297932 1.338249 1.303258 1.405979 1.254208 1.275033 1.233054 1.240053 1.272826 1.224745 1.374097 1.271764 1.347830 1.285490 1.267676 1.240206 1.336684 1.212232 1.343943 1.257945 1.318403 1.381409 1.277006 1.369378 1.316638 1.389065 1.245820 1.380968 1.231056 1.365189 1.279442 1.381743 1.364660 1.175256 1.260327 1.275423 1.385379
primera 1.342788 1.327774 1.233409 1.328534 1.342081 1.224745 1.382253 1.269064 1.361339 1.114685 1.318291 0.391633 1.224046 1.338670 0.958892 1.292604 1.250739 1.338249 1.303258 1.364063 1.199935 1.253222 1.222574 1.140614 1.199101 0.864750 1.331804 1.222703 1.215439 1.250938 1.230561 1.214045 1.327420 1.185706 1.373248 1.273917 1.082966 1.320086 1.231896 1.257819 1.310603 1.389065 1.257330 1.345950 1.247029 1.299564 1.173853 1.322097 1.281775 1.175256 1.189125 1.267267 1.414214
cocina 1.362900 1.360289 1.318440 1.328534 1.342081 1.224745 1.382253 1.275055 1.361339 1.154701 1.272625 1.315063 1.239354 1.358009 0.987861 1.299383 1.179687 1.338249 1.303258 1.344776 1.231816 1.270642 1.123071 1.107097 1.236384 1.143765 1.353900 1.197080 1.209284 1.284742 1.230161 1.158028 1.309483 1.130723 1.373248 1.276545 1.254222 0.232488 1.274833 1.347512 1.315417 1.338089 1.253823 1.364221 1.214121 1.343708 1.225961 1.381743 1.364660 1.175256 1.252460 1.268499 1.414214
sus 1.381311 1.360289 1.318440 1.174290 0.218633 1.224745 1.382253 1.281694 1.254329 0.848115 1.318291 1.353952 1.297685 1.375722 1.044098 1.299383 1.297932 1.338249 1.303258 1.405979 1.254208 1.275033 1.234597 1.240053 1.272826 1.224745 1.374097 1.271764 1.347830 1.286220 1.268169 1.245916 1.366444 1.229996 1.373248 1.288228 1.318403 1.381409 1.308604 1.369378 1.316638 1.389065 1.257330 1.380968 1.253795 1.365189 1.279442 1.381743 1.364660 1.175256 1.268057 1.281451 1.414214
vez 1.342788 1.327774 1.233409 1.328534 1.342081 1.224745 1.382253 1.269064 1.361339 1.114685 1.318291 0.391633 1.224046 1.338670 0.958892 1.292604 1.250739 1.338249 1.303258 1.364063 1.199935 1.253222 1.222574 1.140614 1.199101 0.864750 1.331804 1.222703 1.215439 1.250938 1.230561 1.214045 1.327420 1.185706 1.373248 1.273917 1.082966 1.320086 1.231896 1.257819 1.310603 1.389065 1.257330 1.345950 1.247029 1.299564 1.173853 1.322097 1.281775 1.175256 1.189125 1.267267 1.414214
alguna 1.335207 1.360289 1.315277 1.328534 1.342081 1.224745 1.382253 1.273976 1.361339 1.083266 1.316183 1.310154 1.266899 1.355794 0.994219 1.196816 1.277579 1.338249 1.303258 1.383450 1.188101 1.241616 1.206786 1.198220 1.255944 1.184123 1.241619 1.236372 1.304738 1.232596 0.475823 1.201493 1.319738 1.190801 1.373248 1.264231 1.285829 1.348565 1.304414 1.344772 1.315265 1.361954 1.245632 1.262528 1.229163 1.341017 1.279442 1.353782 1.364660 1.175256 1.207038 1.276315 1.389675
otros 1.353661 1.360289 1.285706 1.177153 0.137518 1.224745 1.382253 1.255220 1.256273 0.839959 1.273982 1.353952 1.284902 1.375722 1.033352 1.299383 1.297932 1.338249 1.303258 1.405979 1.254208 1.275033 1.233144 1.240053 1.272826 1.224745 1.374097 1.271764 1.347830 1.286513 1.268368 1.240539 1.338437 1.213275 1.345669 1.259731 1.318403 1.381409 1.278870 1.369378 1.316638 1.389065 1.246494 1.380968 1.232393 1.365189 1.279442 1.381743 1.364660 1.175256 1.260778 1.275775 1.387076
mamá 1.040816 1.038473 0.978900 1.032257 1.043808 0.872534 1.081284 0.950991 1.074149 0.784480 0.969710 0.873071 0.765725 1.034587 0.466793 0.947004 0.965406 1.017079 0.955448 1.051674 0.894521 0.950562 0.835628 0.881085 0.730020 0.774079 1.063960 0.932185 0.966095 0.958263 0.940701 0.899328 0.972730 0.839721 1.082119 0.921645 0.631608 1.021847 0.950409 1.050101 1.014955 1.053318 0.875918 1.079626 0.919365 1.046058 0.721147 1.072156 0.888383 0.780986 0.844084 0.911392 1.128561
salía 1.152385 1.137866 1.083602 1.105652 1.149794 1.012371 1.198131 1.053308 1.173942 0.886346 1.120356 1.122644 1.055156 1.154451 0.690811 1.013007 0.999441 1.147086 1.072459 1.178187 0.965292 1.037081 0.978407 0.954919 1.053193 0.937223 1.096928 1.016034 1.116146 1.011814 0.546187 0.926024 1.090153 0.937185 1.187732 1.043968 1.088721 1.136028 1.087019 1.140870 1.095140 1.149315 1.019294 0.706808 0.855589 1.154917 1.077899 1.157304 1.177792 0.862858 0.967738 0.912305 1.211303
también 1.351930 1.360289 1.283652 1.167137 0.337639 1.224745 1.382253 1.253563 1.249479 0.867042 1.271188 1.353952 1.284107 1.375722 1.032739 1.299383 1.297932 1.338249 1.303258 1.405979 1.254208 1.275033 1.233054 1.240053 1.272826 1.224745 1.374097 1.271764 1.347830 1.285490 1.267676 1.240206 1.336684 1.212232 1.343943 1.257945 1.318403 1.381409 1.277006 1.369378 1.316638 1.389065 1.245820 1.380968 1.231056 1.365189 1.279442 1.381743 1.364660 1.175256 1.260327 1.275423 1.385379
descubrió 1.345775 1.330290 1.240122 1.328534 1.342081 1.224745 1.382253 1.270035 1.361339 1.117798 1.318291 0.440096 1.229837 1.341541 0.961753 1.293124 1.254413 1.338249 1.303258 1.367316 1.204175 1.254905 1.223498 1.148528 1.204903 0.812679 1.335088 1.226527 1.226075 1.254992 1.234374 1.216514 1.330447 1.189153 1.373248 1.275018 1.102761 1.324879 1.237934 1.266703 1.311066 1.389065 1.257330 1.348662 1.247548 1.304703 1.182266 1.326757 1.288306 1.175256 1.108892 1.268358 1.414214
escapaba 1.338932 1.298915 1.315529 1.328534 1.342081 1.224745 1.382253 1.266951 1.361339 1.089119 1.316351 1.313691 1.269376 1.357390 0.976668 1.197241 1.220142 1.338249 1.303258 1.385255 1.193494 1.244307 1.204674 1.193565 1.257295 1.187405 1.252669 1.239224 1.308218 1.177085 0.394483 1.151259 1.323513 1.167166 1.373248 1.257805 1.288450 1.299600 1.273643 1.346746 1.315374 1.310344 1.242906 1.272353 1.192821 1.342956 1.279442 1.356027 1.364660 1.175256 1.159880 1.276724 1.391643
hacían 1.352262 1.360289 1.284045 1.328534 0.311456 1.224745 1.382253 1.253880 1.250782 0.862144 1.271723 1.353952 1.284259 1.375722 1.033156 1.299383 1.297932 1.338249 1.303258 1.405979 1.254208 1.275033 1.233071 1.240053 1.272826 1.224745 1.374097 1.271764 1.347830 1.285686 1.267808 1.240270 1.337020 1.212432 1.344273 1.258287 1.318403 1.381409 1.277363 1.369378 1.316638 1.389065 1.245949 1.380968 1.231312 1.365189 1.279442 1.381743 1.364660 1.175256 1.260413 1.275490 1.385704
pinta 1.149896 1.144839 1.065372 1.124724 1.140693 1.000000 1.187696 1.016192 1.163291 0.889975 1.111217 0.742876 1.027461 1.160557 0.680041 1.069145 1.024486 1.136183 1.068592 1.193314 0.985169 1.002849 0.982577 0.691186 1.018453 0.000000 1.039585 1.016978 1.078141 1.049677 1.017076 0.839317 1.113019 0.949710 1.177205 1.052999 0.990550 1.089310 1.060123 1.114437 1.107397 1.178147 1.031793 1.101214 1.008788 1.133247 1.009565 1.137267 1.123650 0.920728 0.928623 1.016190 1.209026
sabía 1.341823 1.303131 1.315725 1.328534 1.342081 1.224745 1.382253 1.267948 1.361339 1.093652 1.316482 1.316437 1.271299 1.358630 0.979176 1.204380 1.225527 1.338249 1.303258 1.386658 1.197672 1.246396 1.206709 1.196747 1.258345 1.189952 1.261200 1.241439 1.310918 1.185964 0.263869 1.157865 1.326443 1.171496 1.373248 1.259874 1.290486 1.305261 1.276023 1.348279 1.315459 1.315784 1.243881 1.279944 1.197017 1.344462 1.279442 1.357771 1.364660 1.175256 1.167467 1.277043 1.393172
cosas 1.351930 1.360289 1.283652 1.167137 0.337639 1.224745 1.382253 1.253563 1.249479 0.867042 1.271188 1.353952 1.284107 1.375722 1.032739 1.299383 1.297932 1.338249 1.303258 1.405979 1.254208 1.275033 1.233054 1.240053 1.272826 1.224745 1.374097 1.271764 1.347830 1.285490 1.267676 1.240206 1.336684 1.212232 1.343943 1.257945 1.318403 1.381409 1.277006 1.369378 1.316638 1.389065 1.245820 1.380968 1.231056 1.365189 1.279442 1.381743 1.364660 1.175256 1.260327 1.275423 1.385379
fui 1.132079 1.086944 1.079470 1.154658 1.170219 1.033553 1.216082 1.082408 1.192257 0.922217 1.035508 0.699795 1.024845 1.175182 0.627487 1.083120 1.047013 1.135740 1.045217 1.169887 0.920248 1.051508 1.012559 0.952832 0.960743 0.816062 1.145288 1.038650 1.059663 1.026659 1.007997 0.969983 1.104642 0.952876 1.170081 1.075910 0.949977 1.147606 1.076784 1.099028 1.092762 1.171980 1.041074 1.173761 1.018770 1.115009 0.883840 1.134247 1.143303 0.949283 0.635587 1.068132 1.187275
regreso 1.340095 1.300610 1.315607 1.328534 1.342081 1.224745 1.382253 1.267352 1.361339 1.090943 1.316404 1.314795 1.270148 1.357888 0.980644 1.268635 1.222309 1.338249 1.303258 1.385819 1.203930 1.270612 1.208525 1.202595 1.257717 1.188429 1.328843 1.246342 1.309303 1.180661 0.351396 1.153918 1.324691 1.168908 1.373248 1.258637 1.289268 1.301877 1.274600 1.347362 1.315408 1.312533 1.243298 1.275408 1.194509 1.343561 1.279442 1.356728 1.364660 1.175256 1.162934 1.276852 1.392257
más 1.107700 1.089239 0.992843 1.101840 1.135376 1.011958 1.197782 1.034677 1.173586 0.918892 0.916474 1.094309 1.029240 1.180447 0.633294 1.034753 1.058170 1.116124 1.023869 1.178888 0.895024 0.969400 0.886404 0.979141 0.990641 0.926126 1.140194 1.046097 1.126767 1.028273 1.005165 0.951525 1.079636 0.941520 1.133577 1.018341 1.051572 1.168766 1.084523 1.131908 1.075320 1.109042 0.709527 1.160853 0.977737 1.139053 0.939529 1.125302 1.177437 0.831463 0.392507 1.031555 0.784113
ido 1.113855 1.109323 1.062357 1.094058 1.110468 0.965380 1.158699 0.974590 1.133669 0.874810 1.059594 1.047687 1.009063 1.121762 0.624080 0.996534 0.971591 1.105835 1.021289 1.124116 0.942499 0.925043 0.936636 0.413838 1.012595 0.684603 0.695194 0.887315 1.044248 0.986404 0.947422 0.556315 1.084545 0.897668 1.147942 1.011932 1.056929 1.051386 1.053607 1.124897 1.045924 1.089855 0.989420 1.083456 0.876200 1.120176 1.033891 1.101631 1.137654 0.857596 0.934626 0.965293 1.169545
pegar 1.343995 1.360289 1.187167 1.328534 1.311950 1.224745 1.382253 1.237320 1.361339 1.100337 1.258342 1.288512 1.280465 1.375722 1.001663 1.299383 1.297932 1.338249 1.303258 1.405979 1.254208 1.275033 1.227025 1.240053 1.200318 1.191360 1.374097 1.266492 1.300031 1.289573 1.270437 1.238680 1.328643 1.207456 1.336027 1.084748 1.260669 1.381409 0.315668 1.177150 1.306544 1.321199 1.238040 1.380968 1.224927 1.365189 1.227003 1.322857 1.290633 1.175256 1.258259 1.273812 1.377595
inquietos 1.268836 1.198820 1.302336 1.328534 1.342081 1.224745 1.382253 1.263349 1.361339 1.154701 1.169001 1.217417 1.212350 1.357050 0.861334 1.235573 1.220285 1.280130 1.146967 1.316313 1.044327 1.224693 1.188735 1.181130 1.159259 1.084018 1.308287 1.238510 1.288554 1.181612 1.171725 1.119972 1.234595 1.124546 1.303493 1.245236 1.244713 1.327589 1.298833 1.311414 1.231486 1.287064 1.198921 1.345601 1.169609 1.290404 1.074562 1.299598 1.364660 1.129170 0.392507 1.238622 1.285064
ella 1.154614 1.145146 1.111059 1.124724 1.140693 1.000000 1.187696 1.024779 1.163291 0.912871 1.084116 1.049867 1.035657 1.162331 0.682937 1.073724 0.954914 1.136183 1.042847 1.153111 0.947126 1.052474 0.928052 0.517684 1.022754 0.780062 1.062798 0.991286 1.049351 1.062015 1.009312 0.863646 1.097898 0.897840 1.138382 1.056482 1.062015 0.638319 1.075839 1.131145 1.089271 1.138701 1.029718 1.114750 0.976796 1.126942 1.033919 1.172190 1.167175 0.917351 0.997744 1.023909 1.211755
manguera 1.170480 1.160147 0.982747 1.102390 1.138861 1.019503 1.204163 0.952776 1.180098 0.878612 1.095258 1.072129 1.096430 1.185075 0.719093 1.084276 1.040662 1.153385 1.074214 1.198789 0.960730 1.072047 1.000181 1.026252 1.017878 0.967115 1.181580 1.053439 1.085395 1.042353 1.039173 0.990715 1.152838 0.969959 1.129621 0.952584 1.074509 1.136798 0.448865 0.590213 1.048619 1.126525 1.019450 1.178321 0.986743 1.149271 1.055251 1.121179 1.143575 0.913757 1.033576 1.060700 1.220876
batalló 1.174909 1.277347 1.198331 1.328534 1.313418 1.120331 1.283948 1.236493 1.361339 1.141055 1.259037 1.272147 0.612217 1.310898 0.908929 1.203853 1.284543 1.338249 1.303258 1.279922 1.215631 1.275033 1.198316 1.206884 1.161947 1.164152 1.345951 1.266683 1.283287 1.277590 1.253220 1.211282 1.225197 1.146943 1.337845 1.194338 1.081181 1.304866 1.270420 1.369378 1.316638 1.361250 1.231308 1.369694 1.201032 1.365189 1.112438 1.353056 1.286904 1.131828 1.214426 1.076223 1.353560
mala 1.358125 1.360289 1.315505 1.328534 1.342081 1.224745 1.382253 1.217964 1.361339 1.154701 1.316335 1.243828 1.269141 1.375722 1.001055 1.275179 1.245180 1.338249 1.266503 1.405979 1.225989 1.211305 1.211320 0.411903 1.272826 0.902823 1.209094 1.253582 1.347830 1.280024 1.248577 1.015491 1.316319 1.186971 1.373248 1.265974 1.318403 1.381409 1.308604 1.369378 1.316638 1.363924 1.246477 1.286494 1.222347 1.365189 1.279442 1.355814 1.364660 1.151233 1.228343 1.219358 1.391456
pegaban 1.343828 1.360289 1.186556 1.328534 1.311815 1.224745 1.382253 1.237121 1.361339 1.100091 1.258071 1.288216 1.280389 1.375722 1.001854 1.299383 1.241514 1.338249 1.303258 1.405979 1.254208 1.275033 1.227618 1.230894 1.272826 1.191210 1.374097 1.266469 1.299817 1.289513 1.233508 1.191217 1.328474 1.176137 1.335861 1.084820 1.318403 1.321902 0.317683 1.176233 1.306499 1.326779 1.238353 1.380968 1.179366 1.365189 1.279442 1.322592 1.364660 1.175256 1.258216 1.273779 1.377432
conmigo 1.071662 1.092358 0.990126 1.084063 1.121759 0.937838 1.132113 1.021777 1.163291 0.904390 1.076499 1.107926 0.730966 1.120176 0.629645 1.008757 1.042090 1.136183 1.035013 1.084328 0.986432 1.022416 0.965297 0.966099 0.993617 0.937031 1.162101 1.024833 1.098332 1.079558 1.035574 0.928852 1.040621 0.936708 1.156975 1.000561 0.963626 1.143300 1.074572 1.148266 1.005666 1.157299 0.958612 1.009486 0.791823 1.167793 0.969772 1.129554 1.122884 0.722263 0.996609 0.505612 1.190551
suerte 1.358665 1.360289 1.315573 1.328534 1.342081 1.224745 1.382253 1.219474 1.361339 1.154701 1.316380 1.246483 1.269807 1.375722 1.007802 1.275743 1.297932 1.338249 1.303258 1.405979 1.226648 1.212815 1.204285 0.391217 1.272826 0.880273 1.213160 1.254005 1.347830 1.280558 1.256299 1.021403 1.343507 1.216293 1.373248 1.266492 1.318403 1.292136 1.308604 1.369378 1.316638 1.364510 1.246729 1.371009 1.249799 1.365189 1.279442 1.356419 1.364660 1.175256 1.229275 1.276796 1.391986
esas 1.359959 1.327131 1.193208 1.258495 1.338021 1.224745 1.382253 1.093493 1.361339 1.116949 1.315295 1.244016 1.297685 1.355181 0.980779 1.257943 1.239542 1.338249 1.236063 1.347603 1.089928 1.262366 1.194017 1.229221 1.242343 1.169091 1.350672 1.238853 1.256113 1.193848 1.245979 1.207164 1.344818 1.188122 1.296358 1.248968 1.277796 1.322123 1.014876 0.353275 1.187644 1.365841 1.213819 1.337581 1.211260 1.302466 1.279442 1.294018 1.364660 1.098671 1.212952 1.243536 1.414214
debí 1.329468 1.360289 1.093887 1.270134 1.314540 1.224745 1.382253 1.221064 1.361339 1.143228 1.158975 1.353952 1.257092 1.375722 0.996118 1.245199 1.297932 1.338249 1.303258 1.405979 1.190875 1.147433 1.042659 1.208518 1.272826 1.209346 1.350451 1.264469 1.347830 1.281638 1.255054 1.216836 1.313921 1.198736 1.343518 1.209647 1.263144 1.381409 1.270381 1.333947 1.314669 1.314690 0.617888 1.351590 1.215059 1.365189 1.279442 1.331973 1.364660 1.022795 0.985883 1.238935 0.555533
pasó 1.357803 1.360289 1.315464 1.328534 1.342081 1.224745 1.382253 1.217063 1.361339 1.154701 1.316308 1.242243 1.268743 1.375722 0.999215 1.274842 1.244438 1.338249 1.265989 1.405979 1.225595 1.210404 1.203126 0.422691 1.272826 0.915662 1.206664 1.253330 1.347830 1.279706 1.248146 1.011952 1.315615 1.186368 1.373248 1.265665 1.318403 1.288644 1.308604 1.369378 1.316638 1.363574 1.246327 1.285144 1.221908 1.365189 1.279442 1.355454 1.364660 1.150899 1.227787 1.218480 1.391140
duras 1.359959 1.327131 1.193208 1.258495 1.338021 1.224745 1.382253 1.093493 1.361339 1.116949 1.315295 1.244016 1.297685 1.355181 0.980779 1.257943 1.239542 1.338249 1.236063 1.347603 1.089928 1.262366 1.194017 1.229221 1.242343 1.169091 1.350672 1.238853 1.256113 1.193848 1.245979 1.207164 1.344818 1.188122 1.296358 1.248968 1.277796 1.322123 1.014876 0.353275 1.187644 1.365841 1.213819 1.337581 1.211260 1.302466 1.279442 1.294018 1.364660 1.098671 1.212952 1.243536 1.414214
tener 1.328374 1.360289 1.130975 1.328534 1.317499 1.224745 1.382253 1.249612 1.361339 1.142989 1.158364 1.353952 1.256239 1.375722 0.999460 1.276416 1.297932 1.338249 1.303258 1.405979 1.227434 1.144644 1.072251 1.207857 1.272826 1.209026 1.349957 1.267401 1.347830 1.281194 1.256958 1.216228 1.312813 1.198081 1.342896 1.235209 1.268059 1.381409 1.275876 1.369378 1.316638 1.313108 0.705271 1.371290 1.226287 1.365189 1.279442 1.357139 1.364660 1.050677 0.989469 1.270664 0.000000
preguntar 1.334361 1.360289 1.315220 1.328534 1.342081 1.224745 1.382253 1.206822 1.361339 1.154701 1.316145 1.309351 1.266337 1.355432 0.992932 1.194886 1.277209 1.338249 1.303258 1.383040 1.186875 1.241005 1.206279 1.093398 1.255637 1.129619 0.427113 1.097204 1.303948 1.256537 1.173979 1.134626 1.318880 1.190082 1.373248 1.263794 1.285234 1.347965 1.304338 1.344324 1.315240 1.361460 1.245420 1.350437 1.245570 1.340577 1.279442 1.353272 1.364660 1.175256 1.205909 1.276222 1.389228
valiera 1.359959 1.327131 1.193208 1.258495 1.338021 1.224745 1.382253 1.093493 1.361339 1.116949 1.315295 1.244016 1.297685 1.355181 0.980779 1.257943 1.239542 1.338249 1.236063 1.347603 1.089928 1.262366 1.194017 1.229221 1.242343 1.169091 1.350672 1.238853 1.256113 1.193848 1.245979 1.207164 1.344818 1.188122 1.296358 1.248968 1.277796 1.322123 1.014876 0.353275 1.187644 1.365841 1.213819 1.337581 1.211260 1.302466 1.279442 1.294018 1.364660 1.098671 1.212952 1.243536 1.414214
